<?xml version="1.0"?>
<opencv_storage>
<opencv_ml_ann_mlp>
  <format>3</format>
  <layer_sizes>
    120 40 65</layer_sizes>
  <activation_function>SIGMOID_SYM</activation_function>
  <f_param1>1.</f_param1>
  <f_param2>1.</f_param2>
  <min_val>-9.4999999999999996e-001</min_val>
  <max_val>9.4999999999999996e-001</max_val>
  <min_val1>-9.7999999999999998e-001</min_val1>
  <max_val1>9.7999999999999998e-001</max_val1>
  <training_params>
    <train_method>BACKPROP</train_method>
    <dw_scale>1.0000000000000001e-001</dw_scale>
    <moment_scale>1.0000000000000001e-001</moment_scale>
    <term_criteria>
      <epsilon>1.0000000000000000e-002</epsilon>
      <iterations>1000</iterations></term_criteria></training_params>
  <input_scale>
    3.1649372437122143e+001 -5.7906944343833436e-002
    4.4358001573634365e+000 -4.1388532692770297e-001
    2.9821808411580220e+000 -1.8520030571268304e+000
    3.8343143364363872e+000 -3.2303172621975671e+000
    4.2033140988203925e+000 -3.0868687431890880e+000
    4.2982396096565045e+000 -3.4661140261906076e+000
    4.0010071991949285e+000 -3.3251469419055675e+000
    3.0070670703780511e+000 -1.3965076795134355e+000
    6.7553516846356585e+000 -2.8342295871606021e-001
    4.8391013718087457e+001 -3.4014087513186179e-002
    4.5052004156736096e+000 -3.3755337050518626e+000
    4.5193722941586554e+000 -3.6804017965989808e+000
    4.5174174064540802e+000 -3.0479358097850455e+000
    4.4130395036843959e+000 -3.1386168807540429e+000
    4.6876554442226848e+000 -3.6614772510383804e+000
    4.5711594901365391e+000 -3.5119585974019074e+000
    4.2381806758354976e+000 -2.8465550028558675e+000
    4.5318145153374747e+000 -3.2351934790771706e+000
    4.4020536223467994e+000 -3.5892124257163949e+000
    4.2959515388644691e+000 -2.9822969700008266e+000
    3.2915594112957153e-001 -3.2105931422891719e-002
    4.4433131923413048e-002 -2.3066325261337797e-001
    1.2994014050958557e-002 -7.8520586344441323e-001
    1.0885290184592831e-002 -1.4843097921923685e+000
    1.0291400560790174e-002 -1.6799163695118238e+000
    1.1409967820763485e-002 -1.9501631611110812e+000
    1.1325024390814115e-002 -1.4788079492921402e+000
    1.6269437999302062e-002 -5.9142537389523264e-001
    6.6202039002158458e-002 -1.3957892149091225e-001
    4.4464017195989969e-001 -2.5421159368627971e-002
    2.9883969969125723e-001 -3.5153330479999328e-002
    3.5299265335435939e-002 -2.7700380622822246e-001
    1.1464626413745276e-002 -1.0604151195757954e+000
    1.0970577383594967e-002 -1.7517034315285038e+000
    1.1514206444875252e-002 -1.4051306871913811e+000
    1.2112141413721970e-002 -1.7587678893544358e+000
    1.0628889571554069e-002 -1.7668464485179827e+000
    1.3545062441534444e-002 -7.9311354841387571e-001
    5.2414222862484282e-002 -1.6946222894671079e-001
    4.5040011320969814e-001 -2.7642676212577676e-002
    2.9371754401081857e-001 -3.4979999761639131e-002
    3.1451882721330558e-002 -2.9141632397717970e-001
    1.0546079741897177e-002 -1.0151211759841670e+000
    1.1116950024004518e-002 -1.4694071014497614e+000
    9.8380468238167783e-003 -8.6390079119700591e-001
    9.9998944520853783e-003 -9.8875356769887002e-001
    1.0133179774455024e-002 -1.4074433898079577e+000
    1.2161422196651327e-002 -7.7422069090877244e-001
    4.6253844947522882e-002 -1.8716416715583434e-001
    5.2095455798372825e-001 -2.5946226767577310e-002
    2.5855093424603320e-001 -3.5546030779806566e-002
    3.1674490426828815e-002 -2.9316260586721277e-001
    1.0587096737118631e-002 -1.0327253903781288e+000
    1.0903279303616075e-002 -1.5597637613045829e+000
    9.8838584703418060e-003 -1.0602604666485744e+000
    1.0403473633093647e-002 -1.1865977537897874e+000
    1.0018117718859946e-002 -1.3314135785375680e+000
    1.2445700151326062e-002 -7.1660074207888513e-001
    4.8566193373658077e-002 -1.7937910511646654e-001
    4.6017438985370113e-001 -2.9755552972761244e-002
    2.7223859828905639e-001 -3.3250768885036967e-002
    3.5745474498042933e-002 -2.6117875801650903e-001
    1.0991373652836841e-002 -9.3903031368529211e-001
    1.0198367389057238e-002 -1.6121027026130061e+000
    1.0658047779399974e-002 -1.6746055235972126e+000
    1.1549556510055561e-002 -2.0261757437756174e+000
    1.1251322780725763e-002 -1.7638668032935805e+000
    1.3488456750388631e-002 -6.7670595428551050e-001
    5.5792875783622381e-002 -1.6155950921780909e-001
    4.3501223934673655e-001 -2.6671780627262769e-002
    2.7220316031843822e-001 -3.8367651981075529e-002
    3.5282705433896520e-002 -2.5283289397415876e-001
    1.1106909988131582e-002 -8.9817869753877944e-001
    1.0453560431820889e-002 -1.4978639675418279e+000
    1.1078447722126041e-002 -1.3713261978961151e+000
    1.1163119185727828e-002 -1.6869421062088858e+000
    1.0900044483945440e-002 -1.7873099731599889e+000
    1.2888876917897755e-002 -7.5730391859017909e-001
    5.6554240179875113e-002 -1.7298559205530847e-001
    4.1733728406723131e-001 -2.3606084808722474e-002
    2.1630946970318354e-001 -4.3988896055079947e-002
    3.2161925941929743e-002 -2.7601997742442552e-001
    1.0597326320291461e-002 -9.5439556973659478e-001
    1.0318964246577422e-002 -1.2873686971866523e+000
    1.0918451802433723e-002 -8.2807455713629485e-001
    1.0523010284934266e-002 -1.0564887047734028e+000
    1.0439812698517353e-002 -1.5717206667141224e+000
    1.1844300648605534e-002 -8.1658606771997755e-001
    4.8355763712824282e-002 -1.9607284706644215e-001
    4.1021233472317814e-001 -2.3602694612360166e-002
    2.1350092445124769e-001 -4.6420591890855178e-002
    2.9415504159080005e-002 -3.0165936224511969e-001
    1.0729911426444085e-002 -1.1441068579589220e+000
    1.1009712155447944e-002 -1.5657253263015716e+000
    1.0690360530532673e-002 -9.1310740727063966e-001
    9.8375873478017111e-003 -1.0229479595369066e+000
    1.0174031767970671e-002 -1.5201622733087192e+000
    1.1710069907562033e-002 -8.5169226422666711e-001
    4.8266861968594213e-002 -2.0302410449576005e-001
    3.8860953247875196e-001 -2.2549006603278778e-002
    2.3552429104910144e-001 -4.7322830033002604e-002
    3.2695328694204710e-002 -2.8606620973489472e-001
    1.1322318074934223e-002 -1.1421843346517166e+000
    1.1005601665989349e-002 -1.8174601272395852e+000
    1.1974080871734559e-002 -1.4765877487841590e+000
    1.2903749803896743e-002 -1.7473298845508538e+000
    9.9212127066221883e-003 -1.5620479441678576e+000
    1.3441996854405919e-002 -8.0970925730317767e-001
    5.6532314151929483e-002 -1.7995752852479160e-001
    3.4676443412082919e-001 -2.4026907332531884e-002
    2.6273241380097589e-001 -4.1847783396453536e-002
    4.3565291458566968e-002 -2.2415541402810887e-001
    1.3298256982695007e-002 -7.5048434750397353e-001
    1.1197717904979579e-002 -1.4332410764236811e+000
    9.8938236040015375e-003 -1.4887969618666077e+000
    1.0097953470457846e-002 -1.4013295977246707e+000
    1.1214792774311585e-002 -1.2192188185248134e+000
    1.6139681490873654e-002 -5.6485544076005367e-001
    7.0268236438798301e-002 -1.4560636207511096e-001
    3.4119823480503297e-001 -2.3516585594209528e-002</input_scale>
  <output_scale>
    5.2631578947368418e-001 4.9999999999999994e-001
    5.2631578947368418e-001 4.9999999999999994e-001
    5.2631578947368418e-001 4.9999999999999994e-001
    5.2631578947368418e-001 4.9999999999999994e-001
    5.2631578947368418e-001 4.9999999999999994e-001
    5.2631578947368418e-001 4.9999999999999994e-001
    5.2631578947368418e-001 4.9999999999999994e-001
    5.2631578947368418e-001 4.9999999999999994e-001
    5.2631578947368418e-001 4.9999999999999994e-001
    5.2631578947368418e-001 4.9999999999999994e-001
    5.2631578947368418e-001 4.9999999999999994e-001
    5.2631578947368418e-001 4.9999999999999994e-001
    5.2631578947368418e-001 4.9999999999999994e-001
    5.2631578947368418e-001 4.9999999999999994e-001
    5.2631578947368418e-001 4.9999999999999994e-001
    5.2631578947368418e-001 4.9999999999999994e-001
    5.2631578947368418e-001 4.9999999999999994e-001
    5.2631578947368418e-001 4.9999999999999994e-001
    5.2631578947368418e-001 4.9999999999999994e-001
    5.2631578947368418e-001 4.9999999999999994e-001
    5.2631578947368418e-001 4.9999999999999994e-001
    5.2631578947368418e-001 4.9999999999999994e-001
    5.2631578947368418e-001 4.9999999999999994e-001
    5.2631578947368418e-001 4.9999999999999994e-001
    5.2631578947368418e-001 4.9999999999999994e-001
    5.2631578947368418e-001 4.9999999999999994e-001
    5.2631578947368418e-001 4.9999999999999994e-001
    5.2631578947368418e-001 4.9999999999999994e-001
    5.2631578947368418e-001 4.9999999999999994e-001
    5.2631578947368418e-001 4.9999999999999994e-001
    5.2631578947368418e-001 4.9999999999999994e-001
    5.2631578947368418e-001 4.9999999999999994e-001
    5.2631578947368418e-001 4.9999999999999994e-001
    5.2631578947368418e-001 4.9999999999999994e-001
    5.2631578947368418e-001 4.9999999999999994e-001
    5.2631578947368418e-001 4.9999999999999994e-001
    5.2631578947368418e-001 4.9999999999999994e-001
    5.2631578947368418e-001 4.9999999999999994e-001
    5.2631578947368418e-001 4.9999999999999994e-001
    5.2631578947368418e-001 4.9999999999999994e-001
    5.2631578947368418e-001 4.9999999999999994e-001
    5.2631578947368418e-001 4.9999999999999994e-001
    5.2631578947368418e-001 4.9999999999999994e-001
    5.2631578947368418e-001 4.9999999999999994e-001
    5.2631578947368418e-001 4.9999999999999994e-001
    5.2631578947368418e-001 4.9999999999999994e-001
    5.2631578947368418e-001 4.9999999999999994e-001
    5.2631578947368418e-001 4.9999999999999994e-001
    5.2631578947368418e-001 4.9999999999999994e-001
    5.2631578947368418e-001 4.9999999999999994e-001
    5.2631578947368418e-001 4.9999999999999994e-001
    5.2631578947368418e-001 4.9999999999999994e-001
    5.2631578947368418e-001 4.9999999999999994e-001
    5.2631578947368418e-001 4.9999999999999994e-001
    5.2631578947368418e-001 4.9999999999999994e-001
    5.2631578947368418e-001 4.9999999999999994e-001
    5.2631578947368418e-001 4.9999999999999994e-001
    5.2631578947368418e-001 4.9999999999999994e-001
    5.2631578947368418e-001 4.9999999999999994e-001
    5.2631578947368418e-001 4.9999999999999994e-001
    5.2631578947368418e-001 4.9999999999999994e-001
    5.2631578947368418e-001 4.9999999999999994e-001
    5.2631578947368418e-001 4.9999999999999994e-001
    5.2631578947368418e-001 4.9999999999999994e-001
    5.2631578947368418e-001 4.9999999999999994e-001</output_scale>
  <inv_output_scale>
    1.8999999999999999e+000 -9.4999999999999996e-001
    1.8999999999999999e+000 -9.4999999999999996e-001
    1.8999999999999999e+000 -9.4999999999999996e-001
    1.8999999999999999e+000 -9.4999999999999996e-001
    1.8999999999999999e+000 -9.4999999999999996e-001
    1.8999999999999999e+000 -9.4999999999999996e-001
    1.8999999999999999e+000 -9.4999999999999996e-001
    1.8999999999999999e+000 -9.4999999999999996e-001
    1.8999999999999999e+000 -9.4999999999999996e-001
    1.8999999999999999e+000 -9.4999999999999996e-001
    1.8999999999999999e+000 -9.4999999999999996e-001
    1.8999999999999999e+000 -9.4999999999999996e-001
    1.8999999999999999e+000 -9.4999999999999996e-001
    1.8999999999999999e+000 -9.4999999999999996e-001
    1.8999999999999999e+000 -9.4999999999999996e-001
    1.8999999999999999e+000 -9.4999999999999996e-001
    1.8999999999999999e+000 -9.4999999999999996e-001
    1.8999999999999999e+000 -9.4999999999999996e-001
    1.8999999999999999e+000 -9.4999999999999996e-001
    1.8999999999999999e+000 -9.4999999999999996e-001
    1.8999999999999999e+000 -9.4999999999999996e-001
    1.8999999999999999e+000 -9.4999999999999996e-001
    1.8999999999999999e+000 -9.4999999999999996e-001
    1.8999999999999999e+000 -9.4999999999999996e-001
    1.8999999999999999e+000 -9.4999999999999996e-001
    1.8999999999999999e+000 -9.4999999999999996e-001
    1.8999999999999999e+000 -9.4999999999999996e-001
    1.8999999999999999e+000 -9.4999999999999996e-001
    1.8999999999999999e+000 -9.4999999999999996e-001
    1.8999999999999999e+000 -9.4999999999999996e-001
    1.8999999999999999e+000 -9.4999999999999996e-001
    1.8999999999999999e+000 -9.4999999999999996e-001
    1.8999999999999999e+000 -9.4999999999999996e-001
    1.8999999999999999e+000 -9.4999999999999996e-001
    1.8999999999999999e+000 -9.4999999999999996e-001
    1.8999999999999999e+000 -9.4999999999999996e-001
    1.8999999999999999e+000 -9.4999999999999996e-001
    1.8999999999999999e+000 -9.4999999999999996e-001
    1.8999999999999999e+000 -9.4999999999999996e-001
    1.8999999999999999e+000 -9.4999999999999996e-001
    1.8999999999999999e+000 -9.4999999999999996e-001
    1.8999999999999999e+000 -9.4999999999999996e-001
    1.8999999999999999e+000 -9.4999999999999996e-001
    1.8999999999999999e+000 -9.4999999999999996e-001
    1.8999999999999999e+000 -9.4999999999999996e-001
    1.8999999999999999e+000 -9.4999999999999996e-001
    1.8999999999999999e+000 -9.4999999999999996e-001
    1.8999999999999999e+000 -9.4999999999999996e-001
    1.8999999999999999e+000 -9.4999999999999996e-001
    1.8999999999999999e+000 -9.4999999999999996e-001
    1.8999999999999999e+000 -9.4999999999999996e-001
    1.8999999999999999e+000 -9.4999999999999996e-001
    1.8999999999999999e+000 -9.4999999999999996e-001
    1.8999999999999999e+000 -9.4999999999999996e-001
    1.8999999999999999e+000 -9.4999999999999996e-001
    1.8999999999999999e+000 -9.4999999999999996e-001
    1.8999999999999999e+000 -9.4999999999999996e-001
    1.8999999999999999e+000 -9.4999999999999996e-001
    1.8999999999999999e+000 -9.4999999999999996e-001
    1.8999999999999999e+000 -9.4999999999999996e-001
    1.8999999999999999e+000 -9.4999999999999996e-001
    1.8999999999999999e+000 -9.4999999999999996e-001
    1.8999999999999999e+000 -9.4999999999999996e-001
    1.8999999999999999e+000 -9.4999999999999996e-001
    1.8999999999999999e+000 -9.4999999999999996e-001</inv_output_scale>
  <weights>
    <_>
      -1.0793981614733807e+000 -3.0571592078120702e-001
      8.0074840978807196e-002 1.0174408379964375e+000
      5.9479588822582152e-001 6.0240069172868316e-001
      -5.0035063078816144e-001 1.0134519150784504e+000
      -1.7321008896713933e-001 9.4984984357156854e-001
      -5.5787312022480817e-001 -9.1675159752448487e-001
      -5.9725525121350831e-001 1.4448776336603503e-001
      -4.2309016625735857e-001 3.5018052958541618e-001
      -2.2767424740457520e-002 8.2890311138717837e-002
      1.2207403351719007e-001 -2.3569654446705376e-001
      4.4445305950853531e-001 -1.6057808061141049e-001
      1.6464262726253482e+000 -8.3506884605575460e-001
      -6.1066145745678713e-001 1.1389624139647123e-001
      6.0077522541410666e-001 -4.4731949584598468e-001
      -7.2597050227858317e-001 -6.6407160652553243e-001
      -6.9051849853521241e-001 -6.9587638292868584e-002
      -2.1638909630653619e-001 -6.3773503591406744e-001
      -2.0614510792795862e-001 7.5135922564916768e-001
      2.1304272591843385e-001 4.5574615833824950e-001
      -3.2384294811591513e-001 5.6740806617713180e-001
      5.4215684969906719e-001 -2.5142991625036720e-001
      -4.3336822374724659e-001 3.4988576975422159e-001
      5.7921826095135343e-001 -4.0632214270661754e-001
      7.5235434599688886e-002 -5.1608394342295534e-002
      -4.6500054494351357e-002 -4.4348286600369075e-001
      4.4639265714036765e-002 3.9187972011315061e-002
      1.2751418990369548e-001 1.3050265484791179e-001
      1.9754535259376063e-001 -5.6508032796546970e-001
      -1.2984362636440666e-001 5.2998901715848874e-002
      -2.2616279831548133e-001 5.2581858333742371e-001
      -3.3936448595876401e-001 -4.0287790727062645e-001
      -5.4234307518998215e-002 3.6393856748716585e-001
      -5.3482771527805083e-002 1.0533358160283541e+000
      2.3182616151237959e-001 7.6216346401961488e-001
      -5.6842559534877886e-002 -4.4532866172606850e-001
      3.1567101249105767e-001 7.0811231657407325e-001
      -6.1150865528686504e-001 -3.0305373591656865e-001
      1.9591479977329512e-001 -3.8315249452175359e-001
      -5.2408571824380445e-001 1.2215744941530937e+000
      2.0551281799816423e-001 -1.4197982604446507e-001
      2.0498948838525041e-001 3.9896290651136079e-001
      1.9466409173305543e-001 -6.8306610162775594e-001
      7.2790030916994153e-001 6.7810617164203474e-002
      -4.0054811730232420e-001 -4.7997771518747673e-001
      -5.0471208922222388e-001 -6.2943137784880765e-001
      -8.5083395762607567e-002 5.7040355841433250e-002
      -5.0047216741249900e-001 2.6213149189171264e-001
      2.0355112779011333e-001 -2.2344747789273556e-001
      -6.7888010300490284e-002 -7.4367320139540316e-001
      -7.5331492844425352e-001 -7.1370900617654764e-001
      2.6566404948347994e-001 -2.5085102219376543e-001
      3.2338884429558279e-001 -6.5706846661201634e-001
      -7.4528509905135598e-001 -5.2871443338715962e-001
      9.8821572074419030e-003 -1.4716258777929891e-001
      8.0347404856747029e-001 -1.1445278993703287e+000
      9.7260500646752324e-001 -6.4834421053309416e-002
      -1.2202741342847012e-001 -7.2677195360108460e-001
      -4.2511039644591081e-001 -3.7920035924913326e-001
      -4.7141265898292095e-001 4.3027523026440639e-001
      -5.4552030529749940e-001 -1.3973457013817889e+000
      1.8037964896759567e-001 -1.2253020282276590e+000
      4.0422874868721828e-002 4.8648039066887644e-001
      9.7390118556400196e-001 7.0115437005698733e-001
      -3.2045529638459702e-001 -7.1771121848372443e-001
      -1.1137939957719155e-002 -7.1485456163164973e-001
      -5.6456828367122569e-001 7.9825530432364045e-001
      1.0605888085410890e-001 1.1734473389166789e+000
      -5.5962203299807300e-001 3.4444866437556171e-001
      -1.5903922806123208e-001 -3.1662701684984684e-001
      8.5483844044985635e-001 -4.3701465748095275e-001
      -1.1400360113801722e-001 -9.0117588751222621e-001
      -1.0705360815419857e-001 -1.2645779837314142e+000
      -1.6206145789961703e+000 1.1456496248958719e+000
      -1.3036813166048780e+000 -9.2584096825141660e-001
      3.9072537778461924e-001 2.9498255440892240e-001
      -7.8651659456077017e-001 -4.1663289834038475e-001
      -1.8652288236844172e-001 3.1616500829824584e-001
      -4.6275803890754402e-001 1.3573902369068784e+000
      -4.2114402490518776e-001 1.8580779121487183e+000
      1.5765313481750434e+000 2.2610969387400578e-001
      8.3915471566336897e-001 -1.1190777260338722e+000
      4.1628092460599164e-001 -5.5320652379618229e-001
      -4.7315706279220016e-001 -9.3534142136736664e-001
      -1.5483518121312727e+000 -1.9749199595507336e-001
      1.9502517493484609e-001 -1.1730491496721207e+000
      -3.0172226523674010e-002 -1.3951826374843604e-001
      -5.9348092773279026e-001 4.1737067239272047e-001
      5.0387872508061171e-001 -7.8268562178589485e-001
      8.2775787528228340e-002 -8.0405860087169301e-001
      -2.4858508073988864e-001 -7.7384629866334775e-001
      1.1786558441992667e+000 -8.4340244386094698e-001
      -6.5532378697092930e-001 -7.0710528867142103e-002
      7.0588330789732201e-002 9.5432190614115786e-001
      2.0411156492245705e-001 -3.6981971260753965e-001
      5.2468192938074643e-001 -1.1968540561443197e+000
      -6.1831566879068478e-001 -2.4681793003955130e-001
      -5.1617403755151325e-001 -1.1810949927902974e+000
      -1.3480896118640442e+000 6.8930713760697881e-001
      -2.2514921633038418e+000 1.8153294175889065e+000
      1.5932759098262858e-001 -4.8489184040868744e-001
      -5.8609796315081106e-002 -9.7960811911947632e-001
      1.7579915562272058e-001 -3.0081311769882968e-001
      -7.3776853668780584e-001 -3.9617797470066862e-001
      -1.6433161060145673e-001 3.5743162918104571e-001
      1.4224394275032468e+000 -1.0816847837617687e+000
      -6.9446349517598138e-001 2.8590922922781276e-001
      -1.1246384578835220e-001 -1.0287393920779040e-002
      8.8595873995796626e-001 -7.7763622318446790e-001
      -1.8751682909107467e-001 4.1203458333751919e-001
      -3.7405941377673446e-001 -4.5359779231012282e-001
      4.9700748390562693e-001 -1.2309023740138263e-001
      -8.5178571192910080e-001 2.3684387175801017e-001
      6.3906359143604177e-003 7.5510832958148766e-001
      -1.0821502912662462e+000 -3.7551563824003975e-001
      -8.5731754324189524e-001 -9.5457885235547957e-001
      -1.1546121034931462e+000 5.0705650531784552e-001
      -7.1383243612546754e-001 -4.9980726970577660e-001
      -4.5162371736689932e-001 2.2373250374089018e-001
      -6.3507718250191281e-001 -9.3864675586940796e-002
      -4.0859860217767635e-001 -7.4188442869701632e-001
      7.3217803879823837e-002 8.9910811818523617e-001
      3.0732674282149243e-002 -9.7345865479153537e-001
      -4.8490161971164636e-001 -1.3886967636183334e-001
      -8.1845152533370080e-001 -9.7572176473179273e-001
      -7.6445285158776344e-001 -4.0180819017143243e-001
      -1.7615130180025058e+000 1.0418486899209769e+000
      -7.6403121976618127e-001 6.3952953009914193e-001
      7.4146947809955654e-001 6.4056667611122076e-001
      -1.6258151199590753e-001 2.6883407704982060e-003
      4.6556087010937780e-001 -1.5511903041979229e+000
      -7.1178356967689971e-001 4.3634943684945846e-002
      -1.3827123490192967e+000 -9.2082117056497415e-001
      -1.1145348138670046e+000 8.0797475128369789e-001
      -1.3091015597637905e+000 -8.1542190676836135e-001
      7.4875522055480703e-001 5.7097086786307738e-001
      -7.0912281001128485e-001 -3.3458915834488401e-002
      -1.2169490718353850e+000 -5.4259691294598802e-002
      4.7368451140605883e-001 -8.7400189145937612e-001
      -9.4439645915530640e-002 1.3496223793039734e+000
      2.6827212337945831e-002 2.8583863956320038e-001
      5.8920342576931950e-001 -4.5594548403164886e-001
      3.7422149223779549e-001 -4.4580828928638414e-003
      5.2116702073311827e-001 -3.2399787739492303e-001
      -6.3813196205133371e-001 1.2790677238072404e-001
      -2.3470158208938807e-001 1.0324377892956933e-001
      4.0199287132766837e-001 7.8034590401899515e-002
      -7.4151738605137629e-001 7.8229448624197198e-005
      1.2728399341911589e+000 -6.0940829292372289e-001
      -1.9014197223568775e-002 -3.8659541768941097e-001
      -3.4264165493359100e-001 -1.6558948736814616e-001
      4.6832053437687671e-001 -4.4132071670623337e-002
      -7.0673650371185365e-002 -4.0849376712470031e-001
      -7.9337207045423297e-002 1.0243324401239519e-001
      4.3643666858798602e-001 1.4170084784494121e+000
      -1.4530987679998317e-002 -1.3068773517239980e+000
      5.7768055359912385e-001 -1.2949193551703876e-002
      -5.3291909739416510e-001 -3.3125066941077663e-001
      -1.5193925797882988e+000 3.5647076484095241e-001
      -9.2629174368955991e-001 -2.0381596653091050e-001
      -6.3239798535578884e-001 -2.7597953989699231e-001
      2.5893011162622115e-001 -1.1814900065857857e-001
      -6.3808760280214594e-001 3.3826904367469912e-001
      -6.4351493523476200e-001 5.3995847166872779e-002
      2.8409588992052792e-001 3.2786545627710079e-001
      -4.6619699236077466e-001 -3.8061871287928629e-002
      1.1717010919752290e-001 -4.2974483777094136e-001
      -1.6274594645002446e-001 6.3580145661432177e-002
      1.7961427408959288e-001 -1.5032160538853490e-001
      5.1901292889396999e-001 -3.5089851227135170e-002
      -3.5999475695660749e-001 -2.9512116239183328e-001
      -5.5070032937958646e-001 -3.0597084898674048e-001
      3.0510406055386907e-001 2.6286912588323491e-001
      9.8725217799754392e-002 1.0115837280224409e+000
      -6.0608944634472833e-002 -1.8417578016352790e-001
      -2.1360652622905457e-001 -2.1460321954259870e-002
      -4.5457955827662455e-001 7.1821779363904992e-002
      -5.1366820794300549e-001 3.9416876032266424e-001
      5.4338693376804942e-002 -1.2387741817215184e-001
      -2.1884644646072218e-001 -5.7501591015529385e-001
      3.5032151006808615e-001 -1.8159723796438146e-001
      -1.3835989637037471e+000 -1.2434612190493487e-001
      7.3141090841354714e-002 1.2583590855416809e+000
      1.5531095312010128e+000 1.4023291757243919e-001
      -3.6263218924149948e-001 -3.1008414046688865e-001
      1.4850675138164338e-002 1.4533733331330587e-001
      -3.5475339161904546e-001 -3.0737091883708501e-001
      -9.8913184557588740e-002 3.4524028812989654e-001
      -1.4941228253186886e-001 4.1761764437787169e-001
      -4.6671476570140452e-002 2.0747981496981200e+000
      3.6657109947271377e-001 5.9867043408118803e-001
      2.5166572446227370e-001 -4.6005792345038932e-001
      1.5079598055004957e+000 -1.1191603624048951e-001
      3.8523148148689906e-001 -1.3510019345274338e-001
      1.6104938385107939e-001 -4.0609066595520443e-001
      -2.2066774862154814e-001 -5.5177424245236484e-001
      1.9409029593406586e-002 4.8487175496122187e-001
      -9.8524315086370537e-002 -2.8577436866375522e-001
      9.7998031623448292e-002 5.2751413750408116e-001
      3.7315740316948520e-001 4.8841221997143186e-001
      -4.1528387260616417e-001 1.3563627337601925e+000
      2.8246933956024683e-001 -6.2390458908966184e-001
      -1.8139165172506036e-001 -1.5039359461678850e+000
      2.1287501437431793e-002 -2.9686725730097990e-001
      3.8266765122413876e-001 4.3541301099723839e-001
      -5.4469509103016311e-001 -8.4584407128226258e-001
      6.2295996932773556e-001 5.2651472869580163e-001
      -1.3245576290252150e+000 1.2520965971792500e-001
      5.9035056621769288e-001 -7.4519754125337034e-001
      1.9048296921757790e-001 -3.2902782259109997e-001
      -1.1465842812154001e+000 7.4794258187137264e-001
      1.8720178399843575e-002 7.4102569726156853e-001
      5.1639961898304787e-001 -1.4194675709118407e-001
      9.4056057307262120e-001 -9.9437649079308710e-001
      -2.6746044937823354e-001 2.1306499103464291e-001
      -5.4148466460386591e-001 -1.5877594273701873e-001
      3.6130034260634281e-001 4.5542013069015469e-001
      -4.2344641434823549e-001 2.2120555111152776e-001
      1.0081292408037246e+000 -6.5513942681193826e-001
      8.3588599301895983e-001 -4.7847480731231418e-001
      9.9899192155644445e-001 1.0359210541836660e-002
      9.7265090924190023e-001 -5.4370667032589186e-002
      5.1305649465183645e-001 -5.7948960852753625e-002
      7.3712810481570037e-002 1.5115955427915734e-001
      6.9768813360648663e-002 -7.2625815617560943e-002
      -5.7464797038883172e-002 -1.7061943623576056e-001
      2.9922476309472362e-001 2.3572450152044200e-001
      -9.2625109165458974e-001 9.3267672601329155e-001
      -1.2017275236771752e-001 4.4842449478765520e-002
      -8.2348743031004673e-002 -8.7547163952321549e-001
      7.8961181503048011e-002 -3.2204487730372676e-002
      -6.3197393630074206e-002 2.2930889501709989e-001
      1.3152622046593194e+000 -5.2147864895075924e-001
      1.4704591052191729e-001 -6.2168867460213451e-001
      2.8012797805604922e-001 7.3721676089385202e-001
      -3.6421176867264454e-001 5.3410203583164040e-001
      -3.6764182057345618e-001 -1.5758658962071953e-001
      1.8455632927097926e-002 7.8713081341390587e-002
      5.1908030190528376e-001 -9.4863207243396197e-001
      -4.3361447903936501e-001 -1.5737281847260112e+000
      -3.3592475688658657e-001 -2.9486529378121795e-001
      9.3661125881463947e-001 2.0907113856752191e-001
      -2.3924649532839903e-001 7.8784453225478024e-001
      -3.2897023089244387e-001 -1.0116002845082235e+000
      -6.6268916464661964e-001 -8.1769313082857342e-002
      -4.8857003686939759e-001 1.6639978994780749e-001
      7.1591090011770375e-001 9.3315332493204950e-002
      -8.2099689006972587e-001 1.3057047335192933e+000
      -3.9779626267716650e-001 -8.4543110539916411e-001
      -4.1855653177720567e-002 3.2145898648918209e-001
      6.2304335714535219e-001 -5.8496140811560615e-001
      3.1109083884775240e-001 1.2760221736863561e-001
      4.0508223314965630e-001 -7.6343444782939016e-002
      6.8697586330043425e-001 -9.2531099094527967e-003
      -4.1958467476167388e-001 -2.2726659129808810e-001
      -3.1692434210003528e-001 2.0008123310940856e-001
      -1.3720830024258443e-001 2.8798641369152100e-001
      4.6499635846289306e-001 4.0698820340256664e-001
      1.4022984096744391e+000 -3.1429180351850453e-002
      1.3103804129980165e-001 -1.7630960278175689e-001
      3.1080013462602527e-003 -1.8387374563815795e-001
      1.5703186076566042e+000 8.2007193830255967e-002
      -1.0136116597579400e-001 -4.4631003131816854e-001
      -1.8260612274012936e-001 -2.8506502417608451e-002
      -4.8607047533522707e-001 -2.2290956312813102e-002
      -2.5871998894776576e-002 1.4255569930082024e+000
      -1.9764542237067634e-001 -1.1251901513519409e-001
      -1.8809703731261964e+000 -3.6563673127941045e-002
      2.1614928827642134e-002 4.3286576491674972e-001
      7.3622980405683525e-001 -9.4595229600876796e-001
      -4.0377542970957458e-001 -7.6161774099206203e-001
      5.8197209643190886e-003 -1.2337034055606105e-001
      4.7181218403159225e-002 3.5987992263924334e-001
      2.6125286197687342e-001 -3.0585938638655658e-001
      -7.6213166884284089e-001 6.5444446486624419e-001
      8.4443595756656498e-001 5.4193362596138939e-001
      -5.3383302012939726e-001 3.0281573103428994e-001
      -1.8750028893750290e-001 1.0573771511664007e+000
      5.0502831208019194e-001 1.0547354767370323e+000
      -3.7083728286677953e-001 5.6513634789835110e-001
      -6.6395405227123683e-001 -2.1042164615981303e-002
      7.8383639282622530e-001 7.6720389799922706e-001
      -1.6049200013614724e-002 3.2557104931302300e-001
      -7.9484790618487156e-001 -4.7134118854020968e-001
      -2.1673873698658899e-001 -8.2057665365308696e-001
      -4.7805009047378576e-002 -1.8040918084681104e-001
      -1.4521595803328813e-001 1.3209584629738133e-001
      -1.0908684134206523e+000 -4.7188631838406431e-001
      7.7078769900306554e-001 1.4374734871929354e-001
      3.7978621238790972e-001 -2.7749505667433144e-001
      5.0258560320274437e-001 -1.0772955430037354e+000
      1.1375095306828009e+000 -4.2641872201949227e-001
      -2.7370646350573963e-001 5.7572623737931226e-002
      -3.3002824988433077e-001 -3.4547027126186869e-001
      4.8278879380784639e-001 2.0053119188340354e-001
      5.6427853301829356e-001 6.2786544897626662e-001
      -4.9108545176550977e-001 3.2956606702863472e-001
      -7.1863023384920932e-001 6.3149574211677395e-001
      4.7712928748033526e-002 4.1505012555124698e-001
      -5.4472066857231904e-001 1.2626231157033779e-001
      -1.1725041283555718e-001 8.2563265912558004e-001
      -4.9995228254466789e-001 3.2811317466013172e-002
      -1.1239364826287829e-001 1.0770600144041942e+000
      -3.3552881962373371e-001 -2.3316124533185068e-001
      -6.3391879120436856e-001 -9.0886227000696118e-001
      -4.5702901392460987e-001 3.2294843367951381e-001
      -8.7318555954880106e-001 7.4916719388295183e-001
      -1.1510697925618274e-001 -9.6646215769447941e-001
      -1.0951858339513674e+000 -1.7691960779849372e-002
      -2.1933247977209133e-001 3.3386630773716386e-001
      -3.1648207007140682e-002 -3.2288052536461936e-001
      1.4244964521894796e-001 6.6488015973196180e-001
      -7.4706259641325801e-001 4.9302534750976451e-001
      -1.1418481472900412e+000 1.4974852559698296e-001
      5.0603058345840050e-002 4.4662053787126804e-001
      1.0424933376957739e+000 9.5191237379286742e-001
      -5.3903953740098387e-001 4.0306635916292144e-001
      -4.0568035606019198e-001 1.3316702949017296e+000
      1.5805032762691465e-001 7.3827593848796613e-001
      -3.5207461583341915e-001 4.5774282914474385e-001
      -1.1257793295035753e-001 5.1378468133506738e-001
      -4.3750331922995395e-001 -1.9711988494476726e-001
      -9.0362324636646701e-002 8.3548479355863503e-001
      -8.7008206352074269e-001 4.5533796557603368e-001
      -7.5205693714736677e-001 4.1196269360838422e-001
      2.1523774433190773e-001 1.0971319179804260e+000
      -6.6293037567048185e-001 6.7172656679463938e-001
      7.3943141525211475e-001 1.7454837776501028e-001
      9.4348680029590992e-001 3.3466146868853403e-001
      3.0232320582143801e-001 -8.6574840686517063e-001
      5.9999325510635804e-002 1.0405628018480631e-001
      2.8825042898093389e-001 5.0970533064615919e-001
      -8.3762112375915265e-001 -1.1714472017793121e+000
      2.8887961591910483e-001 1.1422069798468166e+000
      6.3050199207718262e-003 -9.9160006645039112e-001
      5.6859646324789326e-001 3.6659232842805267e-001
      -3.7779406838392171e-001 5.2614440660960804e-001
      -2.3642355874411755e-001 4.3859921888735542e-001
      1.7109438595192533e-001 -4.4020049853092996e-001
      -9.9505810705063258e-002 7.2262831514514358e-001
      5.9960804174993398e-001 6.7270910665553807e-001
      -3.7279446665523397e-001 2.8381262087456793e-001
      1.3907511310589655e-003 2.0741206685041827e-001
      2.5908277919369643e-001 1.7087605736451000e-001
      -6.3022773960775824e-001 -2.9591692932498265e-001
      4.6938646489515498e-002 4.4081552913085120e-001
      -8.8434910275444301e-001 1.2974134311902319e-001
      2.6322203697079100e-001 -5.0912473858270491e-001
      -5.9609908162149661e-001 1.8176951136531869e-001
      -2.1487534933268179e-001 -1.8106642226480709e+000
      -3.7876048626791942e-001 -9.5388196682750587e-002
      -6.8509766199732991e-001 4.5819441104866421e-001
      4.4891337055057168e-001 6.2743506244960584e-002
      -4.3146023237802034e-001 1.4520197114426947e-001
      -6.8787469046997340e-001 -5.7464789489294987e-001
      -6.0109794348577328e-001 -2.1958212275808280e-002
      1.4562995998558828e+000 2.3977277471160766e-001
      -1.1994419678974975e+000 -1.1810296958926416e+000
      -6.5390716238147878e-002 -9.2276766004291266e-001
      -2.0682338518197468e-001 -8.6547444874145341e-001
      8.7628263938615586e-002 4.8326400985729617e-001
      -3.9609506038922643e-001 8.0467837400213149e-001
      1.6881158634908233e-001 -8.0094611004031313e-002
      -1.6547564645024151e-001 -7.1771681346679073e-001
      -1.2529987480403357e+000 -7.4645195272062370e-001
      -8.5756858920999235e-001 3.8836288011088876e-001
      -9.8211880029334442e-001 4.8316952031366195e-001
      -1.0260654622975933e+000 3.6572421297973867e-001
      -4.5268943871832512e-001 1.5067702333851157e-002
      1.1928305781102705e-001 -1.2250090859945626e+000
      1.0829735485750407e-001 -8.7832268573356931e-001
      -8.9868976471089335e-001 2.9172837953269809e-001
      6.2279719406236250e-002 -3.4607033785726743e-001
      3.6435783821193674e-001 6.9610833408546813e-001
      1.0646029248126042e-001 -2.0265568255565882e-002
      -3.5114001635672087e-001 -5.0825278508578153e-001
      7.4169672334974757e-001 -1.5117320637605798e+000
      -2.9490850604156843e-001 4.8610346258053500e-001
      -1.1840942246320173e-001 -1.2820524376604733e-001
      -2.2761210314933328e-001 -1.2430383478581002e+000
      -1.2580677024649103e-001 -1.3842365343312552e-001
      -1.3318988926721860e+000 4.4208613043729611e-001
      -7.5915854497909691e-002 1.1297597650128059e+000
      -7.0093612603697375e-001 -3.8787291015829917e-001
      -7.8022287873773177e-001 1.1460766814064192e+000
      -8.5849891371181888e-002 7.3983353544830344e-001
      2.3450033679748442e-001 1.5881575595265593e-001
      -4.7390548852774017e-001 -2.4529041148419975e-001
      -2.4207265356354837e-001 -3.0532428480183765e-001
      4.6500609427766337e-001 3.5635697498169139e-001
      -6.1313977022832433e-001 -1.5393864522516763e+000
      -5.2332327825606095e-001 7.3193355064984145e-001
      -6.3579838124693933e-001 2.0089057618086287e-001
      -1.1745237662290762e+000 1.6006833186736907e-001
      -4.9140613783696094e-002 5.1615250023062338e-002
      2.9636227854053149e-001 -8.1218102592761277e-001
      -6.8099426967934612e-002 -2.7250805595153216e-001
      1.1940637270147984e-001 1.1562046464522477e+000
      -1.4320893769012295e+000 4.1091896659701049e-001
      4.2247242188989981e-001 -5.0146997986144048e-001
      1.8421256641005340e-001 -6.1095877646736352e-001
      -1.9698822279827435e-001 -5.3601551033536343e-001
      7.3016344351878704e-002 2.0762559907826195e-001
      -1.6856264210769672e-002 4.8820812164057303e-001
      -2.8710610885856258e-001 -6.8902401241860278e-001
      4.6624295220414273e-002 3.5325663509906385e-001
      -1.5047898066553603e-001 -3.9962253352622273e-001
      -3.4737765740344213e-002 -6.9241916915863511e-001
      -2.2518177733994346e-001 1.2122124159634302e+000
      2.6114237351229502e-001 2.2217082147237242e-002
      -2.2813176388711159e-001 -4.6081457786771869e-002
      1.6472729096926883e-001 8.1411931460706022e-002
      2.3685839594552736e+000 -9.0664331509318252e-001
      -5.7900730166850556e-001 9.4667210702850102e-001
      9.8171640808866645e-002 -5.2636724066589580e-001
      -3.4811376557928081e-001 -7.6138560267106048e-001
      -4.3039472571060999e-001 6.4780370078122473e-001
      -1.0409923226664322e-001 -1.5263452333056302e-001
      -1.5040216536824427e-001 -1.9991627834813047e-001
      4.6105399920149009e-001 6.8728717110973503e-001
      -4.8033955692097302e-001 -5.0384248790372643e-001
      6.9015695936965882e-001 6.4744413399989653e-002
      -4.4447470319866988e-001 -5.7351864091306159e-001
      1.0091833620860216e+000 5.8474922450794564e-001
      -2.8236021625119889e-001 -8.6806075850356545e-001
      6.9869846841949057e-001 -3.4832684085568728e-002
      -2.2779946634203352e-001 -4.4917342051337439e-001
      2.8908508949860107e-001 3.6204343817606915e-001
      -2.4007879798516846e-001 5.9398582561403879e-001
      8.8478240781822992e-001 -4.2067576389683276e-001
      -8.5861668906261335e-001 1.3063515379386284e-001
      -6.7138982482395315e-001 -1.1599214698152431e-001
      -3.5096811109105674e-001 -3.2358510009058744e-001
      -4.4294074035284159e-001 5.0746103233849549e-001
      -3.8621845237940816e-001 -8.7390971752030822e-001
      -1.5951419653430052e-001 3.3010325053968587e-001
      -1.9169058912561129e-001 2.0339959913567529e-001
      5.1892009214577983e-002 -5.7752708956071208e-002
      -1.3010136715227294e+000 1.0592074549696857e-001
      -3.0267300562836341e-001 -1.7397934545741114e+000
      2.7468053510637646e-002 -2.0096509049982028e-001
      8.7071760086821059e-001 -7.0471167166858983e-001
      1.0820877936409531e-001 -1.3875676678456226e+000
      1.0123289722096602e+000 1.4793188570262777e-001
      4.0242371700050505e-001 9.3912241904471325e-002
      9.8918980048385596e-001 4.6272010009207565e-001
      5.6200524995119050e-001 -3.7633031033532410e-001
      3.8763852850170227e-001 1.3786968671475372e-001
      1.1687159266821152e-001 -1.6130058369832731e-001
      -5.7527128438736019e-001 2.9373644383294023e-001
      -4.8127993615961800e-001 -1.5049983292286248e-001
      -1.4513422919179486e+000 -5.5516737734723687e-001
      -2.7165813754677703e-001 5.3304693393020830e-001
      6.4300806163883506e-001 -7.7382796436125156e-001
      2.1396485893869968e-001 1.6669720608678767e-001
      5.3351566686502438e-001 9.6533520937387940e-001
      2.8085446306761408e-001 4.4476806969872806e-001
      6.5434621923979874e-001 -1.6987188835091749e-001
      -2.3279363660418038e+000 1.1627668798612902e+000
      6.7229690604070536e-001 -3.4980459232640078e+000
      1.0792599330909673e+000 -7.4529953933728366e-001
      -1.1487140568129071e+000 -5.9904268441606834e-001
      8.5883991412344457e-002 -1.6961185894993980e+000
      4.3053389729687397e-001 3.8103594697986931e-001
      1.0625245662068752e+000 5.8060612115840060e-001
      -6.9259175081930247e-002 -5.4883303708583564e-001
      5.5217900801493670e-002 1.8296654788834643e-001
      -4.5398838183046181e-001 9.8268705272180734e-002
      8.0996296490281272e-001 -1.5092036906241429e-001
      3.1258796918416243e-001 2.4729396957910391e-001
      -1.9564924196723574e-001 -2.6528476529390033e-001
      -1.9148690546300651e-001 1.6078483369441240e-001
      7.8482082728014180e-001 -6.9764835467280503e-003
      -3.1663611077538933e-001 -1.8213920323710402e+000
      -5.7817238232704427e-001 7.3827202645206824e-001
      -6.7163873563113274e-001 3.9917515718910868e-001
      -4.4763915297549434e-001 -1.2872722059265526e-001
      7.1269260966285775e-001 -2.6028859503216956e-001
      -1.4835889465704131e+000 -1.7110007595254076e-001
      7.0895987088958667e-001 -1.8476720275506018e+000
      1.1590711915443826e-001 5.5170298680530205e-001
      -9.5051932952825446e-001 -1.0620886868778643e+000
      -8.2372906923967232e-002 -1.2588364728375245e+000
      -6.5175513254241216e-002 3.1845251763519844e-001
      2.6133621873904916e-001 6.2608781333069341e-001
      1.5718294705536051e+000 -5.1133910849428865e-001
      -3.8203890219105552e-001 -2.7212123954567430e-002
      6.4987180705069514e-001 2.5913615154080427e-001
      1.9587926183868258e+000 -4.1555907309980511e-001
      5.0500810218944536e-001 7.0051286864495854e-002
      5.1731859240630840e-001 3.8729439697819662e-001
      1.1932613341691025e+000 2.3811329964320307e+000
      -3.7958028980909514e-001 -1.3963901932753502e+000
      -1.8669472138632310e+000 -4.1069427161643246e-002
      -1.1956857691207312e+000 2.4144988927142297e+000
      -3.4354907441505436e+000 4.1203318725726762e-001
      -1.3570992913413553e+000 -3.0787208115763193e-001
      -4.0420779301626503e-001 -4.1263771619779449e-001
      -4.7630138762180967e-002 -2.1965716231136025e+000
      1.5990292003047538e-001 1.6371176602668376e+000
      -2.8682653570042027e-001 -8.5752456323738971e-002
      5.6038430758082036e-001 6.8944643544252315e-001
      3.7330235198286588e-001 -1.1565965484076730e+000
      8.8075071572739660e-001 -2.9080060014336678e-001
      -3.8925676167897677e-001 3.8104194090760279e-001
      -1.3524330196556886e+000 -8.2595679596911303e-002
      1.3434924695036854e-002 7.2655576742046801e-001
      2.8167612726128805e-001 -6.2861795697801526e-001
      8.0077867926494717e-001 -3.6894786604225149e-001
      -1.0011118581987630e-001 2.6228903335834836e-001
      5.2903911455566388e-001 -4.3208365340768351e-001
      1.0787357155581589e+000 1.9725320106357396e+000
      -5.1455092072173014e-001 5.8094840542222626e-001
      -2.7477209875376846e-001 1.4282132605270764e-001
      -4.3747615708475501e-001 5.3144917088733867e-002
      -1.1606576578087988e+000 -1.0612370358980983e+000
      9.7943180063893209e-001 -1.5518848894037002e-001
      -7.1143891627381162e-001 4.3616240786028992e-001
      -6.2155600517074117e-001 3.0379650972929617e-001
      1.0256677967904773e+000 2.0791491735551677e+000
      -5.6870336988827885e-001 5.8427325043770295e-001
      1.0533965559021164e-002 8.8606982977243010e-001
      9.2627354483656166e-002 -3.7994477599234922e-001
      6.0751141753912152e-001 -1.2577769995579706e+000
      5.8386716937258987e-001 1.4361620791496308e+000
      2.2096708280437298e-002 -8.7500685229393504e-001
      4.8966041267058252e-001 -5.5470955412971779e-001
      -6.2461506182733206e-001 -9.1654261034909523e-001
      4.8825089987394425e-002 3.8041439078135425e-001
      -2.8657647858903235e-001 -1.2963809608624595e-002
      -1.3762255348403425e+000 -2.2372119492773521e-001
      -3.2486759402996224e-001 2.5049832538144190e-001
      6.3879109305302162e-001 1.1302286035776850e-001
      1.7402081309810049e+000 -6.9617259320697500e-001
      3.5370350944535817e-001 2.9872220853271525e-001
      9.6606611615946258e-001 5.2657870639418303e-001
      1.4404965970612496e-001 2.2814607330852046e-001
      8.3645950588347340e-001 -7.3134624094399703e-001
      5.1826866673802485e-001 1.4182573848060580e+000
      7.6613800812128263e-002 -1.2801485139163153e+000
      9.6964134250377121e-001 1.2852913333834998e-001
      9.0030489940075220e-001 3.4770639498487765e-001
      -1.5423478543519320e-001 1.2653787437769914e-001
      7.8858657152248518e-002 -1.0451171175800866e+000
      3.4964082337811997e-001 8.5973289895261651e-001
      3.1209855424851446e-001 -8.8249981256816235e-001
      5.4889257714530115e-001 -1.1813014119268371e-001
      -7.7296111917278448e-002 -2.9830472810040087e-001
      -2.8248404653553577e-001 4.1291330618755967e-001
      7.5981024228862593e-001 4.1046125180710902e-001
      -6.7909474188973384e-001 5.1260095024371877e-001
      -3.0504875850586333e-001 -2.6689203875633699e-001
      6.4034717924411333e-001 4.2074292699680793e-001
      1.0895884589692091e+000 4.1757633843611525e-001
      4.3604673998267973e-001 -1.0966793755618951e+000
      1.3451495705562504e+000 3.0630397317193997e-001
      3.8088314677291463e-001 1.9407787063943080e-001
      7.0886701498446322e-002 -1.0418913071325102e+000
      6.2348215238998228e-001 1.8025580232599459e+000
      -5.1809238365391641e-002 -1.9926421848528770e+000
      1.9593356042263559e+000 -4.8547579129175961e-001
      -5.3575017436071615e-001 8.7084336945028790e-002
      -1.1486373849863538e+000 3.9246572503396593e-001
      1.6652382290626644e-001 -4.5118799289314615e-001
      2.7745910954364822e-001 4.8530344505848250e-001
      -1.6728241641842814e-001 -9.2128230659633192e-001
      -4.7692648710536428e-001 3.0660429207886059e-001
      -3.1266847601260550e-001 -2.1632588457367502e-001
      3.6962707787705718e-001 3.4199059238351293e-001
      -1.1025541192712138e-001 5.5263659272150734e-001
      -6.9734289799958005e-001 4.2818187319403411e-001
      -3.9084318139336044e-001 2.6227482304431388e-001
      3.8743626745776133e-001 3.0213054590365801e-001
      4.5847386258459233e-001 8.1412075041218335e-001
      2.6750073501060739e-001 3.8422357499811682e-001
      -4.0763015278441589e-001 2.6355515406760854e-001
      1.7226575300013730e-001 2.4479977914691525e-001
      -5.9553811946231505e-001 -9.2379518646052305e-001
      6.3567204232011987e-001 -4.6569208000792804e-002
      -2.7824335338789108e-001 -1.0890144389073846e+000
      1.2912015662948687e-001 -2.8327703770537277e-001
      -3.9471943385490255e-001 8.4179616117491030e-002
      -1.8880113757163309e-003 3.7506423192196497e-001
      2.4506361378476793e+000 -2.5261062564184000e-001
      -1.6375980025614501e-001 -6.2535757934749336e-001
      -4.2727106898798478e-001 -9.6760209486907611e-002
      1.0891733129226705e-001 -3.4308514515445276e-001
      9.6195778344917108e-003 -1.7695933166038003e-001
      3.0998260010228401e-001 -5.1786991737258418e-002
      -1.2051270230242059e-001 3.1865266894595323e+000
      5.5964790319633506e-001 1.7040650644569694e-001
      3.1957138816895006e-002 -9.2400539259400533e-002
      2.1142782687675039e+000 -7.3233176869479430e-002
      7.5100890010098675e-001 -1.2920949034796167e-001
      2.5797661007854267e-001 -6.1449769342045069e-001
      -3.6716358264278189e-004 -1.3819754942934676e-001
      9.3504396438022580e-002 1.9747650592818633e-001
      -3.6216640417432812e-002 5.8992849654818810e-002
      2.8436889530020965e-001 2.4544126208788913e-001
      1.7529448133356129e-001 2.7049271352816456e-001
      -8.3950481645116781e-001 3.9652408074444756e-001
      -1.6866485528960898e-001 -4.3497180266900115e-001
      -3.7878145653422729e-001 2.6586724349012797e-001
      -1.9262827916879174e-001 6.6732998156680390e-001
      1.2104756976468187e-002 7.4248267776638621e-001
      -8.2300169118284763e-002 -7.9096636977546500e-002
      -5.2126575715904733e-002 1.6633888039799441e-001
      1.6117739888001784e-001 -1.3513039014504500e+000
      -9.3755973177706439e-002 3.7477443341128880e-001
      2.7418487397651459e-001 -2.9491195930375375e-001
      -5.8617099510572179e-001 -4.3774274817245368e-001
      2.0614950669130033e-001 -1.7087195114578797e-002
      2.5586286156624709e+000 -4.3098297035743866e-001
      -7.2983509987923378e-001 -1.1139822399190276e-001
      3.3093720151067413e-001 -5.7331062504367325e-001
      -8.0675566664056875e-001 -2.9363355636798621e-001
      -2.5509940082982172e-002 6.3093387217399166e-001
      -1.0697556185081110e-001 -3.3375244001703530e-001
      -9.5996630709822062e-002 1.8500442631038186e-001
      5.0940055017797836e-001 4.2567485352027312e-001
      -2.8051153928692435e-001 -8.2773863714662554e-001
      -1.8265352551721858e-001 -4.3758998624153764e-002
      -1.7156164777762969e-001 -5.2649553180260089e-001
      1.2798441242883518e+000 -6.7179560690358808e-001
      -7.7977397474705570e-002 -5.4756895076598411e-001
      -1.2519944650173975e-001 -3.0392318900390858e-001
      -1.7213235885500441e-001 -3.1423216861061656e-002
      5.7243815564475387e-001 6.5609960583688054e-001
      5.6907868884640944e-001 -3.7291275220399924e-003
      6.6459118947986739e-001 -3.9668044177360161e-002
      -1.2502939201301941e-001 5.0422252302447075e-002
      8.4120326675217030e-002 -1.4672651847044185e-001
      2.5413590514101841e-001 -4.6098032678885115e-001
      -2.0579460158754465e-001 3.1695366397603736e-001
      5.1648705070860945e-001 -1.5724846719761754e-001
      6.0061709268517796e-002 -8.2096731028971123e-002
      -9.2555846998857733e-003 3.6206020400025862e-001
      -1.9072337168417661e-001 -8.3110023572970163e-002
      -1.4354864242855658e-001 -3.8093174289684018e-001
      -3.0890085159903941e-001 -2.7038247598800497e-001
      7.9216822081843807e-001 1.1906721609592633e-001
      -6.7320565146745226e-001 -7.4185881184827740e-001
      -6.3683666285258622e-002 4.4387040411343542e-001
      8.6909466588105999e-001 1.9890003118083699e-001
      7.2109301033708439e-001 -1.1343785370025244e-001
      -3.7409897320388047e-001 -9.8046838426037675e-001
      -1.6325274559097552e-001 -3.8447704324098586e-001
      1.2447487350231747e+000 1.8581312118922686e+000
      5.8594096926960859e-001 -2.5079214506167385e-001
      -3.9225864675331790e-002 2.8196323627181769e-001
      -5.0785664198453417e-001 -6.0610162007154789e-001
      2.6531256912425838e-001 7.6039922431182594e-001
      9.7015924882759230e-001 -5.5557813252899391e-001
      -1.1114166393238636e+000 -8.8703731163909816e-001
      -3.2139648174710456e-001 -2.2363715036278764e-002
      3.9536016692509796e-001 2.8705054640932898e-001
      -1.1080348305586722e-001 6.2126377759516482e-001
      1.1359826776232664e+000 5.0883756700486149e-001
      -4.8935492841699468e-001 3.5398852922409685e-001
      6.4761784223881824e-001 -1.4969838835451035e+000
      7.4446466646580367e-001 -1.3584267642454781e-003
      -1.3267673473721411e+000 -9.0055166165059863e-001
      1.0722519020102306e-001 -1.3033066540263985e-001
      2.0449222031417338e-001 -1.0013891698615169e+000
      1.1976352140614925e+000 4.0489225364584913e-001
      -6.0427724440319452e-001 -1.6837017788406945e+000
      1.9677334220517453e-001 1.5877121711347175e-001
      5.4176602791177253e-001 1.2318350464198653e+000
      5.5808741293892385e-002 -9.2159868169902792e-001
      -1.6390239326114861e-001 8.9019948787354297e-001
      -1.0280543278704111e+000 3.2349985496481701e-002
      7.5934818629943024e-001 5.1005264857003307e-001
      1.9560586425051476e+000 6.1149083618813760e-001
      -2.5256826863334803e-001 -8.8679743193240479e-001
      -1.0402397902629901e+000 6.6135526071559081e-001
      5.5646338669806250e-001 1.2841723373603986e+000
      -1.3243804889822757e+000 -2.2831234952598281e-001
      5.4771094908931717e-001 7.4858590304910322e-002
      -1.4769107080149688e-001 1.0976255344364050e+000
      9.5943780426653580e-001 -1.1234457895290971e-001
      4.2223142509292222e-001 5.9087206645138435e-001
      -8.0454214540092261e-001 -1.3605201426005922e+000
      -1.9829691951400888e-001 -1.5200219895587403e+000
      6.5156345586420084e-001 -7.7406559721970714e-001
      -3.2214706932941689e-001 4.8614143293111450e-001
      1.0633635653779662e-001 -8.5808347726849676e-001
      -1.4632886717671451e-001 -2.7335842873512467e-001
      8.6022936474149025e-001 8.0630415943347866e-001
      8.3353037466734459e-001 2.5359778888841539e-001
      -3.2060380089862339e-002 -1.2048088775488260e-001
      -1.1414778182300538e+000 -1.3748689161191552e-001
      2.9694819068284845e-001 8.6722549563169793e-001
      2.3595826697177730e-001 -7.1448467528863122e-002
      3.4818109532699520e-001 2.5123937670619201e-001
      1.4634397356312863e-003 1.0300320468729009e-001
      -7.4981558252830885e-002 -4.5700220826953725e-001
      5.3553204558770506e-001 -1.7163025027084267e-001
      -7.1900845689343751e-001 -7.0073491018622369e-001
      -8.4894458406741469e-001 2.8172451026567613e-001
      -1.2507916560743231e+000 -7.4938510371252542e-001
      5.0310101941072771e-001 1.4095687091848833e-001
      -5.9614226461411490e-001 1.5649286056154524e-002
      1.4631863773902362e-001 -1.1910154170875700e+000
      3.5198396761956796e-001 -4.7335706220262225e-001
      -3.9153247751986242e-001 -7.7319761605457810e-002
      -5.7031456207125042e-001 -9.2332847972608725e-002
      -2.4081318191592643e-001 4.2631720678671498e-001
      4.6017227880956857e-002 2.2843443142704500e-001
      4.8036707924448746e-001 -3.6570549230433830e-001
      -6.3745104413109077e-001 5.1079454688121961e-001
      -4.4376747012987450e-001 1.1475614235306070e-001
      -3.6861102426548215e-001 3.7766312377784467e-002
      3.2105752501767432e-001 2.9640201051908205e-001
      -2.6497780327259052e-001 2.9911926609915984e-001
      1.0941108850088426e+000 -3.3488246613968320e-001
      -2.2306256362679466e+000 -4.9505682764216664e-002
      1.8948456029237593e+000 -5.4349484202507858e-001
      1.3090022821480563e-001 4.0843295940529473e-001
      -9.9494342235497468e-001 -7.8429325250165979e-002
      -1.1139415405744398e-001 -3.4258343199154390e-001
      -2.3139812835598927e-001 3.5252871517013717e-001
      8.9816614082154511e-001 7.6921763651180730e-001
      1.1985794645988283e-002 1.0914996375708237e+000
      1.8940517120154425e+000 1.3004002772825975e+000
      5.4789876395355464e-001 -7.2589629871851713e-001
      -2.6914604584999535e-001 -6.0940665705195696e-001
      6.6601871197175877e-001 7.6986635184498464e-001
      -3.3901891121851191e-001 8.1797672854974490e-001
      1.5427649649014308e+000 -1.1434751856477230e+000
      5.9390248367674436e-001 1.9651571947490107e-001
      9.1433261907502217e-001 1.0942750311828758e-001
      3.2015948974298053e-001 4.8432146544281746e-001
      1.1165487189786627e+000 1.3278186540471976e-001
      1.7795273189060130e+000 2.9669818227549966e-001
      2.6573721816296236e-001 -8.8181206086436059e-001
      -3.7641679329705402e-001 -1.5418528995882186e-001
      -3.8059458643085076e-001 -1.7822366294358191e-001
      -5.9115884225296333e-001 -7.3473262428067310e-001
      1.3336910818725600e+000 -1.8138820612688367e+000
      8.2192314824622070e-001 -8.8744739484460086e-002
      -9.4494518848509979e-001 -2.0751750118768306e-001
      7.4907639301536522e-001 6.6772444140257944e-002
      -1.9198738595115761e-001 4.8710639094126246e-001
      1.4107870149084671e+000 3.9025090648630778e-001
      2.8878043049454266e-001 1.2744024852112326e-001
      -3.5253000862848473e-002 -1.3772231503076199e-001
      -2.2100464660147634e-001 3.8754888151603062e-001
      4.0941156837860487e-001 -9.4777458165601874e-002
      1.4709313023380064e+000 8.6425517442582978e-001
      4.2573208806990182e-001 6.1612863591434086e-001
      5.6290155062709679e-001 -1.5023872511659628e-001
      6.9635953589828892e-001 1.5145574320960726e+000
      1.3827700368381637e-001 2.7473536285814970e-001
      4.8730433099871079e-001 1.0655381976288487e+000
      1.5098826078047449e+000 1.1175046055510815e-001
      -1.6990322413532388e-001 2.1357483526932677e-001
      -6.3145548125318335e-002 2.0356404850761653e-001
      -2.8508311070550030e-001 -4.7350575698481706e-001
      2.2936509134290071e+000 -2.0469457271416291e+000
      6.1090795006984444e-001 -5.4973029475475543e-001
      -1.0610001617517941e+000 3.8236846774229699e-001
      -3.0782771571250206e-001 -2.1003679017903437e-001
      2.0911644072317684e-001 4.2754779914317148e-001
      -1.1376547279808989e-001 -5.6361234549603589e-001
      2.3252490872889570e-001 -5.6566359959303070e-001
      2.9458373436416468e-001 -7.3577920535456576e-001
      -3.5354704373736645e-001 -5.9024326048341080e-001
      -3.7987082417247930e-001 8.1799475559196233e-001
      9.1526129012922508e-001 1.3674004230509977e+000
      -5.9669492886814557e-001 2.3161015492290282e-001
      8.3398971130990263e-001 -9.6265479247139935e-002
      -2.8368739875903182e-001 8.1636996628054348e-001
      -4.9068758756352704e-001 -2.1740837308812211e-002
      -4.2582856483323855e-002 4.4778185938983733e-001
      2.5242766232896274e-001 -5.5622274441026998e-001
      2.7222955627666434e-001 1.8764245289927831e-001
      -1.0349214547121615e+000 1.3719898737606170e-001
      -3.2661066127976751e-001 -7.8227880461383081e-001
      7.6142971258359837e-001 -1.2544125831661439e+000
      5.0880188970763018e-001 -1.0221997673314689e-001
      -2.5086113320122949e-001 3.9291472022600710e-001
      -3.6579666771441732e-001 -4.2673730034447699e-001
      1.7466104561037088e-001 4.0435259038059529e-001
      2.5716799496006275e+000 -2.8563373539480369e-001
      -3.2298457390722825e-002 -9.5505409979174305e-001
      -2.6803339132529708e-001 -9.6779903965147823e-002
      1.1422393967397557e-001 -4.2668042684403967e-001
      -6.5473817973014603e-002 -3.2011207982196949e-001
      4.3434311062026693e-001 3.8674117123383328e-001
      -1.3470845439360310e-001 3.2358813019211641e+000
      6.5688871241083702e-001 3.5742025140173450e-001
      4.5979922694014769e-002 -1.7253962922075519e-001
      -1.7606115361095376e-001 -9.9345171402097254e-002
      6.4042730189682306e-001 -1.2992846128224678e-001
      1.1033921935424462e-001 -6.8782491335501061e-001
      2.6763516656680112e-003 -1.1700211287883699e-001
      3.7079825575033136e-002 4.6221127650990967e-001
      -3.6507087473626066e-003 -3.2285611750921756e-001
      9.4667250029486019e-002 1.9001840134720824e-001
      1.0039154994644449e-001 3.7598217880489126e-001
      -1.6801673638906320e-001 3.9040960833731048e-001
      -1.5958518686266812e-001 -8.5452459320467300e-002
      -2.1887533341078641e-001 3.3360242038321253e-001
      -3.7033816544016586e-002 1.1875141749290706e-001
      4.4472141517698266e-002 2.9007836324650005e-001
      -1.3451910404167583e-001 1.9948838943814451e-001
      -5.7205565255433266e-001 1.7681964304174483e-001
      -4.9388680875190855e-002 -5.4838981553051988e-002
      7.3724004290245726e-002 5.0814547231545748e-001
      2.3665357958015243e-001 1.3628083354535201e+000
      2.6657069468528433e-001 7.7628478677916488e-002
      2.0477595689437775e-001 6.9827441414697169e-002
      2.4719473149845119e+000 -9.2779449018011162e-002
      -6.5685917170578256e-001 -2.8560874871362703e-004
      -9.9814394410731505e-002 -4.6400011027065041e-001
      -8.0117684647561282e-001 -9.6140786304302520e-002
      -8.0003677279347596e-001 -5.7748502447430816e-001
      -1.3142188002723745e-001 3.7817225842714797e-002
      1.2533952505702098e-001 -2.2758397056193780e-001
      4.7789434172169887e-001 3.5402477774188434e-001
      -6.3741324653144538e-001 3.5708504702231512e-003
      1.1663986829739442e-001 5.0944333567798628e-001
      -9.4207883613928711e-001 8.8673875346564857e-001
      8.0116088417775644e-001 -8.9516349099090564e-001
      -5.3248038994301979e-002 -3.8347077785649125e-001
      -8.2338999554099168e-001 1.2197682336310432e-001
      6.6163156982135074e-001 6.7271267641094667e-001
      -2.4850010685993512e-001 5.2626715092329510e-002
      4.8074475990391069e-001 -2.1064349805261780e-002
      1.4279054480554759e-001 5.1720564091748744e-001
      1.0570106789977911e-001 -1.2821726415173624e+000
      4.7721233526904727e-001 -2.2575843591088506e-002
      2.5722394439421170e-001 7.9031974545877251e-002
      1.4818770412818119e-001 6.1992979314853203e-001
      -5.5918364315242719e-001 3.0177964420034148e-001
      7.9260172913028171e-001 -4.5453266256235986e-001
      -7.7866265338804252e-001 4.7915404936422534e-001
      2.8513550823483630e-001 -1.6808181259005736e-001
      1.0579276588723907e+000 -1.4265395211689838e-001
      2.4958840423953096e-001 -5.1802610798137992e-002
      2.3044022744292814e-001 4.5592128161545448e-001
      7.5730960799621150e-001 5.4667324951650699e-002
      -6.2042735714975726e-002 1.1889059878172863e+000
      4.6690616414802749e-001 -1.6611174613593909e+000
      -7.6407373830162870e-004 -3.6792693916034735e-002
      -8.0137404547764990e-001 1.9119884962134520e-001
      9.4574898755308789e-001 2.8260470945344472e-002
      -8.3479075686216142e-001 2.6659737696764857e-001
      3.6777984252778284e-002 -7.7767860266332722e-001
      1.1791561798148266e-001 -2.6582986914344015e-001
      6.8239009016334140e-001 -1.7760070299441544e+000
      8.7109736246015501e-001 2.7873286168131473e-001
      1.0498224022461435e+000 -1.7602559665536563e-001
      -4.1784678741532205e-001 -2.3575585803621811e-002
      1.7588544453706757e-002 1.2477399002079054e-001
      1.2577605273241947e+000 1.0918983679218832e+000
      -1.8543897471360737e+000 1.0190813643137982e-001
      5.4595552173358619e-001 1.9358446067572332e-001
      1.2791775268567867e+000 4.0353553192104880e-001
      -2.0725435071255574e-001 9.1183140600678636e-001
      -5.4040974403352537e-001 6.1029624024485063e-001
      -1.5881931399552543e-001 -5.3266723181292708e-001
      1.7520412426023593e-001 -3.0221971471967590e-002
      1.9075240236357454e+000 -1.3338535697664766e+000
      1.2298356399295813e-002 7.1920611232799914e-002
      -1.4200457075576145e+000 1.0395989179605025e-001
      2.4806675058069463e-001 5.7032668470829817e-001
      -6.3522339778545112e-001 8.3828692157025486e-001
      7.4907115284649342e-002 -6.3863900632595194e-001
      -1.2355449775608607e-001 2.4931354877386919e-001
      2.4613903982632038e-001 -1.4190107616792118e+000
      -2.9251539313060670e-001 3.5106307410484155e-001
      4.7077900687480218e-001 1.0458996377165962e-001
      -7.2214557705044047e-001 -1.6054781002032330e+000
      6.9974105077816096e-001 1.1771561121313957e-001
      9.9048086777972411e-001 1.6568713667505308e+000
      -1.2763984462160718e+000 -7.2811538543185594e-001
      -6.9127783906517526e-002 -3.8940222129331642e-001
      -1.4819501184714416e+000 1.1847983111992708e+000
      7.4361494225745794e-001 -2.4140986990483271e-001
      8.6310725712047542e-001 -4.6364238722500273e-001
      -1.7023442139526895e-001 -2.0334128660521218e+000
      2.8712419204658269e-002 7.1253696444869696e-001
      3.4477853929954227e-001 -3.4863469904310094e+000
      -2.8506313747233079e+000 -1.8372671435480165e-001
      8.5984307724624998e-001 1.6205658843941229e+000
      6.5434685517898061e-001 3.2851766829566406e-002
      -2.9850207214724511e-001 4.3265861131436190e-001
      -1.9572848651797801e+000 1.3851920515687759e+000
      3.0256232808648409e-001 -4.0610759970726035e-001
      -4.1428216092478709e-001 3.1137651581618525e-001
      -2.6891118311908291e-001 -7.9748663111418949e-001
      -4.5785944966902392e-001 -1.1174025684207303e-001
      9.8014641118985157e-001 4.8971703865263794e-001
      2.6024481646274618e+000 9.2261126491081535e-001
      4.6176772217716566e-001 1.2657340702007014e+000
      -1.2425758097357746e+000 -9.9512479067791881e-001
      -1.1346313262362546e+000 -1.8661022735442958e+000
      1.7539259581178093e-001 1.9719737511645163e+000
      -1.3866721896773291e+000 2.6430100389133897e+000
      -5.7032759383602816e-001 -8.0744273544444534e-001
      1.1511877155606283e+000 -1.0762758441542841e+000
      -3.6375772665659289e-001 1.3555323990300150e+000
      1.3594532124485954e+000 -1.5590664837845070e-001
      -1.5960406760784807e+000 -4.9063434355316360e-001
      3.5015579400587493e-001 1.6292266345383619e+000
      5.5731589743170284e-001 4.0536046605721054e-001
      -1.8307740012819690e-001 2.9905163245762784e-001
      -6.0656510287227383e-001 2.0944310913843661e-001
      1.6022608481480533e-001 1.1438484932420643e+000
      -7.6438008997320028e-001 2.0307262566731978e+000
      6.3527960066474798e-001 -1.5660285763342532e+000
      1.7429191700445365e-002 -5.7164865012800592e-001
      1.4656685317470164e+000 -7.3209818603663490e-001
      -9.3482637471559804e-001 1.2270156569482173e+000
      -1.5116025182655894e+000 -1.5282576137881472e+000
      -1.1521928243523569e+000 -1.6287771883762386e-001
      1.1710366985229657e+000 -1.9618349388985187e-001
      8.8819744844675963e-001 -2.3541643992431677e-001
      -6.1388873874724459e-001 3.6593576631631999e+000
      4.8613553195501247e-001 -9.9534093579362815e-001
      5.0651606834737695e-001 5.0416676342846045e-001
      1.3651027841985766e-001 1.5405711203631123e-001
      5.8643834906963443e-001 1.6335972695846772e+000
      -1.0897989299837875e-001 -9.6913067078393955e-001
      7.4047304718873475e-001 1.7589927048145664e+000
      8.5804325603899412e-001 4.5418987233273693e-002
      -5.7315427514887574e-001 1.0708704240373588e+000
      -1.5776329928700286e-001 -6.4483130270643541e-001
      5.2839089202382727e-001 8.0923325004607294e-001
      1.5077003019266366e+000 -6.0798752507487652e-001
      -5.4355619523998389e-001 -1.0750669783569839e+000
      -6.6478117184458407e-001 -1.4079465557472837e+000
      8.4314417693082996e-002 3.4557108509060264e-001
      -1.2670539546840580e+000 -2.5266407390757673e-001
      -1.6866463641408511e+000 -4.1880750211752693e-001
      -3.5597534397368141e-001 2.7224875671224019e-001
      1.0478800168628080e+000 -7.9374818207833014e-002
      1.0278399553717128e+000 -2.4312239938576723e+000
      1.7977793604279197e+000 -4.0171328923975141e-001
      -5.6400824056426513e-001 -8.4456480163395620e-001
      -2.8036724760114706e-001 -7.7067354475959082e-002
      -2.0990198129981766e-001 -7.7090499541310398e-001
      3.1314255231446325e-001 3.6223443829324059e-001
      -2.5345040475386875e-002 -1.2892179199118998e+000
      9.9275030120167607e-001 2.3660139603786594e+000
      8.5256475231846240e-001 -7.6385052805438980e-001
      5.0095951313443166e-001 3.2433140919039427e-001
      -2.8314453091658620e-001 -1.2159223398103078e+000
      -3.3601083558002354e-001 -4.2115241631266997e-001
      1.1203876128346112e-001 -1.0031563821704026e+000
      4.8072056316899224e-002 3.6887415124453671e-001
      -8.8666538812858386e-001 -4.0038305357047987e-001
      -2.9187350230492953e-001 4.6241198414096137e-002
      -4.7151788056957461e-001 1.2950653244381086e-001
      -3.9654324057379448e-001 6.4593376314262896e-001
      3.6153015070627276e-001 1.8429788225943161e-001
      1.2620381688063345e+000 7.6744981048500194e-001
      3.8322225384713915e-001 -1.5900655584153911e+000
      9.0799292687751187e-001 -9.1099057163306163e-001
      -2.2437467130782989e+000 4.9257422150496923e-002
      -1.0013046821878995e+000 -2.4640620824311676e-001
      6.7025223072010409e-001 4.9537838010808205e-001
      -6.8360701602095697e-001 -6.3962805981080306e-001
      -1.8804976693799569e-001 -7.6764969520590609e-001
      2.2390694411904130e-001 1.1235661222182838e+000
      4.4054224696035138e-001 -6.4079582969217164e-001
      -7.3031718012962155e-001 9.9743404667402313e-001
      4.0037972898724955e-001 -1.1700077618173921e-001
      -1.4888931747297975e+000 -2.9014527146644153e-002
      3.8341720890486275e-001 -8.0077478664336899e-001
      3.6369801721390527e-001 1.1080055863203098e-002
      -4.4954894234613246e-001 2.6614476362548645e-001
      -4.1816997253584004e-001 1.0417037408103920e+000
      -3.7358898859693607e-001 -1.0360170653809055e-001
      1.9361023185153955e-001 4.1895229397382355e-002
      -4.5816127242594551e-001 2.5783920228507257e-001
      1.2780920990318245e+000 5.7311043417409868e-001
      7.8968845099791449e-002 -3.1818388263050168e-001
      7.3265719129912510e-001 -3.2172552404223365e-001
      -5.6365831285014956e-001 1.1090467562331250e+000
      -4.6156205363411706e-001 5.0089443858755037e-002
      1.5331082736043833e-001 4.6751628129963119e-001
      2.9878356966293786e+000 -5.7263661134383172e-002
      -3.8698150065735637e-001 -9.0972945332143229e-001
      4.9849190943499821e-001 1.1457891917491045e-001
      1.1979877247198045e-001 5.7513596521546820e-002
      -9.7593642530206276e-002 1.8477768716162329e-001
      1.5276013780933156e-001 3.4841546196250650e-001
      -1.3263380981681439e-001 3.8293015765622056e+000
      4.4165818526671857e-001 2.8985152186509167e-001
      -3.8258034615137357e-003 1.0963119970591027e-001
      -1.7302867532969649e-001 -2.1272386384914299e-001
      -2.3298937023442653e-001 -1.0187694869570386e-001
      -1.0323741394883659e-001 -7.7474113520189036e-001
      -3.7905203424152448e-002 -2.7187336429461839e-001
      6.1880600683266009e-003 1.0276771454971699e-001
      5.6293376750134294e-002 -2.1838055053719646e-001
      4.2673446745864442e-003 -5.0187647479798081e-001
      3.4117528927647583e-001 2.2909493944687687e-001
      -1.9200707850454812e-001 4.9867395527201852e-001
      -1.0879236748691654e-001 7.7430430748720566e-002
      -4.3509108578287325e-002 2.6904410688888858e-001
      -3.2770643993130767e-002 6.7990890203217325e-001
      -3.7639431416096275e-001 -9.4362990147958056e-002
      4.8506450541894364e-001 1.3322178557952330e-001
      -2.2599195145292569e-001 1.7462121374409625e-001
      -3.9082651255729556e-001 -3.5438873417721721e-002
      -1.5084323269047240e-001 -7.2187842543141245e-001
      3.0116361869038882e-001 -1.3291383707685340e+000
      -4.1838066197954504e-001 3.1469556897384954e-001
      -2.2909933033753349e-001 -3.8887901479162579e-001
      2.2906716227859367e+000 -3.8467277887495971e-001
      -6.1009988431053308e-001 -1.3913607152616062e-001
      6.7234892895617349e-002 -6.1631833897369714e-001
      -6.7721081930801397e-001 2.1473136851181493e-001
      1.4978180532164391e-002 2.8629282404506956e-001
      -2.0156941964982000e-001 -4.0122269117423359e-001
      -9.7453641652676309e-002 2.7875607074594955e-001
      6.2309705561069129e-001 2.3454833461166275e-001
      -3.9481474544788270e-001 -9.5539538113492628e-001
      2.4795286103891069e-002 5.9605119544017286e-003
      -9.6580266072648180e-001 -4.4187134405581763e-001
      -5.7243144177723748e-001 7.1201313086145068e-001
      5.2181695062478384e-001 2.2053318255483298e-001
      2.1682638405102955e-001 4.0168507793000262e-002
      3.5191442591486388e-001 1.2883690458801722e-001
      -1.0198212376515903e+000 -5.8837029657530293e-001
      -7.2169022959347251e-001 2.9150106613018839e-001
      6.3938137300319797e-001 -2.4902152110305886e-001
      -3.9309812137078487e-001 -2.1179718916652088e-001
      -1.9813463181665869e-001 7.7297954631636778e-001
      1.3492910607379663e-001 9.4122560997832422e-002
      1.8797507277334391e-001 5.4792249378528689e-002
      -5.6095785028466932e-002 -4.8898884035901519e-001
      2.0622235575192083e-001 2.5972383169433805e-001
      -7.6152008123806691e-001 1.6226705367125721e-001
      -5.9819329901923513e-001 6.0264790775881351e-003
      -1.8969223175331501e-001 4.7018095868761484e-001
      4.7205142849580550e-002 1.3709408565499175e+000
      -1.7153851127892104e+000 7.5321386200753612e-002
      1.2346145229973204e+000 5.3900736385706227e-001
      1.5971109988200652e-001 1.8219851905014450e-001
      5.9832950371034455e-001 9.9864688026823356e-001
      3.9014778661589478e-001 3.7229281083344098e-002
      -1.2070442277405846e-001 -2.4696165087398311e-001
      4.1075060444615180e-001 -5.1706103770651568e-001
      -1.9033475103056818e+000 -4.5127988011472824e-002
      -5.6847382070871810e-002 1.6817409535003355e-001
      9.4198898003106646e-001 -7.7480250446027621e-001
      1.4060399377149047e+000 -4.4901633880731096e-001
      -2.6998911722670293e-001 3.9775747619299318e-001
      -3.1529065408243656e-001 -3.3678018233997531e-001
      2.7226208073917540e-001 -7.4321706074192306e-001
      -6.8731375631247693e-001 -4.9763748086412651e-001
      1.2472823357559288e+000 -2.4699380606208329e-001
      -1.3241587323571591e+000 3.6752300750692762e-001
      -6.6011161063396095e-001 6.3859541778368278e-002
      6.8260644107969060e-001 1.1592102067757133e+000
      -5.1223820419989352e-001 1.0351943785807949e+000
      -1.5636191400599482e+000 4.0550754867228661e-001
      1.0015294284214966e+000 1.1025388361060811e+000
      -3.3734937742485371e-001 2.2128650304994985e-001
      4.1307136129073208e-001 -1.0420555326221894e+000
      -1.8112262623022321e-001 -2.1582008713734005e-001
      9.1981649850895975e-001 8.0088876886220994e-001
      -9.0402064253956887e-002 -4.6024520212974179e-001
      -1.6409891840784285e+000 -8.2957709063841445e-001
      -7.5765563453696305e-001 -4.3442308586522144e-001
      3.5781761108657267e-001 -3.6223603245010377e-001
      6.7410610570339369e-001 7.8913192951565148e-001
      -2.5344960918508452e-001 1.1136786863855321e+000
      -7.0988105523879930e-001 -6.2772039312685823e-001
      -2.3946911323170841e-001 3.2846685805157004e-002
      -1.7183861646460334e+000 -6.7165367501031603e-001
      1.5442720631845754e+000 -1.2131658136618975e-001
      -5.8086416214258318e-001 2.0071340214386058e-001
      -2.2490966249551467e-001 4.8113387945767588e-001
      -5.0746156225578265e-001 7.9741488489838064e-001
      4.0665719696481029e-001 -5.2946269915139943e-001
      -5.4379747802057965e-001 8.4930373069956655e-002
      2.0591849353023306e-001 8.6637259364674701e-002
      -2.1113334373785428e-001 2.2272118119434133e-002
      -3.5112219259774419e-001 -2.0515192505614119e+000
      -2.1264925962043559e+000 -7.4167657680423771e-001
      1.0018090793514680e+000 1.2178126538962275e+000
      -4.4949653483661178e-001 -1.6604782883174865e+000
      -6.4586711860956303e-001 -6.4017917468404673e-001
      -2.2310110190294350e+000 -4.1547472778513767e-001
      -1.7860676746491783e-001 -5.0627830895471444e-003
      3.8103158431674206e-001 1.6063407825245333e+000
      2.2772344282591984e-003 -2.2772023688801850e+000
      -6.1076191547822761e-002 -4.6834962034019267e-001
      2.2382036847696205e+000 1.0387531576082549e+000
      -3.6823231882858604e-002 7.3760774150036768e-001
      -3.5805060612329886e-001 6.4929543605016471e-001
      -1.5247552365892771e+000 -4.2088729285488047e-001
      2.2033891986171669e-001 -1.4363537604497190e-001
      -5.4541876011037960e-001 2.9184637271696723e-001
      -9.2690885358506947e-001 9.1459781837104781e-001
      1.9335530088605668e-001 1.5129947619729656e+000
      1.2673291807160081e+000 -8.7817758706584514e-001
      8.7352382330898010e-002 -5.6130343450218145e-001
      5.3009304454978179e-001 -2.1820359898882569e-001
      -7.2245801932151565e-001 1.9248690446648017e-001
      7.7135394632377197e-001 -2.3533415147263093e-002
      -6.9472105266881357e-001 -6.6071886336318275e-001
      -8.6771840697808100e-001 -4.2025227620545341e-001
      -3.3837387682913889e-001 -1.6494500630550435e+000
      2.5138792384222680e-001 -3.7275709302302401e-001
      -8.7025376679331423e-001 2.2971383090100943e+000
      1.0364362053479590e+000 -1.7342748453558012e+000
      -1.0791819368631053e+000 -9.3094557385022525e-001
      1.0728777097720856e+000 -9.7091085288369405e-001
      1.1805018670551799e-001 7.0468707543392894e-001
      -3.6279688181982367e-001 3.7191041296098454e-001
      -1.7938526276804626e-001 -7.0541974343874192e-001
      3.8643673234572140e-001 3.6584500481928606e-001
      8.9128729216862990e-001 -1.5255998539995226e+000
      -1.0315559829305587e+000 9.9750190994917087e-001
      -9.6621490954315825e-001 -8.0323616900262504e-002
      -1.0137899129495049e+000 -1.0787828628485061e+000
      6.2318361650328979e-001 -2.0911453099265214e+000
      -1.2390808083316820e+000 6.9449948732219557e-001
      -1.6359281974291140e-001 -1.1219285211648422e+000
      3.8937269223489333e+000 1.6847092082719359e+000
      -1.0100910647924233e+000 -3.7278006339835895e-001
      -5.8311091508121304e-001 5.9178523733171662e-001
      -4.9170719945402486e-001 6.4752748561933293e-001
      3.7461468496313211e-001 -9.1324787287447162e-001
      -4.4353477390757773e-001 6.0416338895701283e-001
      -7.3659861961559980e-001 -9.0328340937657570e-001
      -1.7867432668983860e+000 2.7186809303200238e-001
      -1.8449510538400782e+000 1.4924603372880807e-001
      -1.2872524416486382e+000 8.3535413466404829e-001
      5.8624420903306595e-001 -1.2952631963120180e+000
      -2.7381175475484765e-001 4.3875214630332099e-001
      1.0308267242497082e+000 2.7883605019010496e+000
      2.1820920550116281e+000 -7.9656589315393644e-001
      1.3026968076487397e+000 -5.2280320642094751e-002
      2.2567933028539428e-001 -1.5209312650607356e+000
      -7.7686447518889734e-001 -5.1620285056196979e-001
      3.9538052846905730e-001 -1.6185448801631588e+000
      1.2161014717510694e-001 1.2864564625463202e+000
      4.3449661544428952e-001 -1.2518721490577336e-001
      2.7686334481519701e+000 2.1698061323839015e+000
      -3.9490229419818640e-001 5.1567670131109622e-001
      -3.5029991778441055e-001 1.9858352773439877e-001
      -6.6598399817964327e-001 1.0977538914337457e+000
      -3.2213345875078175e-001 -6.0069702919068291e-001
      -9.4449578650002408e-001 6.6765785414256940e-001
      -5.7030644240282247e-001 -3.7245709171029717e-001
      3.9745877408168234e-002 3.3911341974968812e-001
      -1.1911348720903980e+000 -7.1137687031972416e-002
      -1.3981697982649208e+000 1.3678761935543757e+000
      -9.5617368884302067e-001 -6.1381272061111625e-001
      -8.5596844214692458e-001 8.7737357650203796e-001
      1.2761965686685830e+000 1.4485669048940961e+000
      8.8194621918625427e-001 8.6424061520068629e-001
      6.9731704477205125e-001 1.8807469982645026e+000
      8.0334406374989498e-001 -8.5666310435510551e-001
      -6.3269934628906610e-001 1.2872556095689916e-001
      8.3535225871442509e-001 -7.9530123682530707e-002
      2.3166456435863336e-001 8.2453746290857555e-001
      -2.7752264863797160e-001 -8.9413182595572419e-002
      6.1182337289315847e-001 6.3163882447554931e-001
      -8.8593399466634071e-001 -5.1061952803250443e-001
      -5.7476220287046298e-001 7.2068457412487130e-001
      -1.9296583267012141e-001 3.4399276187823791e-001
      2.8980311471327780e-001 -1.1606702984242215e-002
      -2.8427272379725982e-001 1.7963795860780890e-001
      -8.4500393164940302e-001 3.9413339745367953e-001
      3.0009526305602513e-001 9.9525595031359260e-001
      3.0433423501785134e-001 6.8047469248573633e-001
      -3.4037944508099571e-001 3.5944342091177084e-001
      -9.9397199585474827e-001 -7.3944025075440911e-001
      -2.0175885444525856e+000 7.5551337987908673e-001
      1.4837999056885759e-001 -9.8885324516922626e-002
      7.7056567996018283e-003 -5.0182257276237918e-001
      -3.3404663266623968e-001 1.0101710031862070e+000
      3.8677989882423602e-001 4.1026634280542629e-001
      -3.7211892917613310e-001 -8.8368929501543472e-002
      1.2629612509171806e-001 3.9655035947530687e-001
      2.5497810600609228e+000 -1.8324952229472272e-001
      -9.5839887981495475e-001 7.6815385970326555e-001
      5.2940918103295909e-001 -7.6722531260010399e-002
      -5.7347973366665361e-001 -4.9854452788611905e-002
      -7.6686316527429271e-002 3.8169797296413754e-001
      -2.3893345787952433e-001 -6.5712742501573149e-002
      2.9979026984766949e-001 3.2700183775498086e+000
      5.3944938437334344e-001 2.1396568572602770e-001
      1.7166198522407747e-001 -1.9530866546369902e-001
      2.1247300226489094e+000 1.1249073792441336e-001
      -1.6391325299324030e-001 -1.5697648948071641e-001
      -2.3622272372267751e-002 -5.8227844065447720e-001
      9.9727071108605633e-004 4.6853856632979984e-001
      -2.4504797864891199e-002 3.1472003995866016e-001
      -7.5721119957352589e-002 -6.2453789279594263e-001
      1.0633471230721293e-002 -1.5868138916097321e-001
      2.8410812741133944e-003 5.2129971769494410e-001
      -4.8885712171533209e-002 4.0433073668830138e-001
      -1.3773719681985414e-001 -1.7092140289006380e-002
      -3.5116716109421225e-001 2.6507653758160826e-001
      -7.8362759432608439e-002 -1.5912392997536615e-001
      -2.6274515399510995e-001 2.8264544882281185e-003
      1.0103960292780431e-001 1.3520267067531822e-001
      -9.5789387744417670e-002 1.5733667445224911e-001
      -1.3870161962806782e+000 -4.0161541392425087e-002
      -2.3132389543280810e-001 2.1921017563710074e-001
      1.6832885838658138e-001 -2.9467990564485547e-001
      -2.0529406707842246e-001 1.5463409531457292e-001
      6.7216852788225701e-002 -1.4716897639608878e-001
      2.2280318911369426e+000 -3.4940951245977481e-001
      -1.3375283394808138e-001 -6.1294894479377596e-002
      7.5834235679441947e-002 -3.9882318911117803e-001
      -6.1659484320282687e-001 2.5209853646653047e-001
      -1.3984187505724610e-001 4.5264016480232150e-001
      -1.5480047235203498e-001 -3.2684747367048456e-001
      -2.4251631239218902e-001 -1.2144297484409165e-001
      3.2888072084525299e-001 4.3689155233946381e-001
      -3.0795061445199012e-001 -1.3037193963864915e-001
      -8.9897421004063671e-002 -5.2003406443334055e-001
      1.2454360086927793e-001 -1.5286664443370737e-001
      -1.6739108476547487e-001 -4.7929975513233733e-002
      2.9498400656534113e-001 -6.5840501275555144e-002
      -7.0284963392636957e-001 7.1211157408710368e-001
      2.0265183801737949e-001 3.9855258009410927e-001
      -4.1149886539885144e-001 -1.8799264482894800e-002
      -2.8188996821076773e-001 3.9322783813889872e-001
      4.9581723550709128e-001 4.6080456922474672e-001
      2.4897081926442530e-001 -3.9306104661514463e-001
      1.7350610754943066e-001 4.4842222422991102e-001
      7.0888594171917896e-001 4.6955163527373789e-001
      -2.0416615765552271e-001 5.1242927843950781e-001
      -7.0912401486473575e-001 -7.4540518249680987e-001
      -3.6400761560060235e-001 1.4829722679782187e+000
      -6.8741206456446713e-002 -1.0611975955464159e+000
      -1.6770918121630696e-001 -4.0853029147587799e-001
      -5.5050052758308110e-001 6.9121644967993459e-002
      -1.4247350451383020e-001 -3.5584661343877677e-001
      -2.7624351508280781e-001 7.4112805148451044e-001
      5.3922970661491865e-001 3.9143755244957712e-001
      -2.2349794841861868e-002 -2.3652739098437934e+000
      -4.1213322377626105e-001 2.7793561341760246e-002
      7.0150208982679052e-001 -2.2527892155708128e-002
      -4.0858926082313873e-001 5.3538534361350483e-002
      3.1108639165840601e-001 1.1060313635400905e+000
      -2.1429080837698636e-001 -3.6230771262946010e-001
      3.5568913377881251e-001 5.1275729615033361e-001
      1.7715465935785898e-001 7.2071557163400213e-001
      5.8123096774081540e-001 -7.6759396744336007e-003
      1.1941685010955829e+000 -2.8769249780983630e-001
      1.1454864589548477e+000 1.7283053639555601e+000
      5.0451496951272184e-002 1.5432694204405048e-001
      -3.2092284706313878e-001 -1.3243385258065870e+000
      2.0314911829202933e-001 1.5265659826389819e+000
      8.2773471429503942e-001 -1.0830071069738094e+000
      -7.0164776095985526e-001 -5.5271021252758490e-001
      -5.2805613324860567e-001 1.1994741611233795e+000
      -3.2135555863676346e-001 -2.5827863169386761e-001
      5.4334689852809226e-001 2.5057778539567783e+000
      1.4398455671580772e+000 1.2867030851287062e+000
      -2.6381039278619933e-001 -4.2371054019764809e-001
      3.2978044344279006e-001 -6.8197224913738100e-003
      4.4628650128099318e-001 -9.0855142305779613e-001
      -3.1251334770601402e-001 1.0592140428632890e+000
      1.4587643222926241e-001 -1.6285500632717215e-001
      -9.6712495597831710e-002 -1.3821085240724478e+000
      5.4176932219099516e-001 -9.9064098504614478e-002
      -5.3059641907549349e-001 1.7758435086125399e-001
      -1.3935599680678930e-002 -5.3453032616079310e-001
      8.8414644811546428e-001 1.0754960726682770e+000
      -1.3085260431711658e+000 3.0226298371672622e-001
      -1.2826209541808404e+000 -1.2159567465679041e-001
      3.9772987197204529e-001 -1.9265614732052037e+000
      9.9005586673059132e-001 1.2569267806211337e+000
      9.8844218854569810e-001 6.3526697474463789e-001
      -7.4452966843155632e-001 2.5308180579087464e-001
      -1.0515688739032651e+000 1.5146010831970558e+000
      -1.3542295601259655e+000 -1.3046435207375058e+000
      -1.5573969668952210e+000 2.8221681312280684e+000
      -1.8564753688298924e-001 1.1724078618447602e+000
      -5.6565441530194138e-001 3.5448457581448994e-001
      -1.6880253708497128e+000 5.5559870042875503e-001
      -4.4751669426452134e-001 5.6278523571680317e-001
      -1.5018831912841435e+000 -3.3283673473490499e-001
      -6.6528157283714884e-001 -1.1537312668957749e+000
      -1.2546125377567325e+000 -1.5143006394259497e+000
      2.4292990210298279e-001 -4.8466950191401426e-001
      -4.2653198928449093e-001 1.2056551007314477e-001
      -2.4658319646764409e-001 6.5793196179796842e-001
      -1.1403701572430323e-001 -4.7814970700259080e-001
      -1.5897360304386787e+000 -8.8042013267074148e-001
      1.2046118818657363e+000 -9.1117194486733097e-002
      2.1002483664710736e+000 6.7801109957508243e-001
      1.3487032247678887e+000 -1.1144597425712208e+000
      -9.2765178843541607e-001 9.0600632522638114e-001
      5.2536507932628052e-001 -3.2852835946241138e-002
      -1.6546838292270605e-001 6.4029900920180971e-001
      -1.0562022098647645e+000 -1.4888220841259536e+000
      3.2392697315624393e-002 2.4477686847492620e-002
      4.4579843790613166e-001 -2.3245008865890665e-001
      5.7581923445443861e-001 6.8084348875763989e-001
      4.0722647014862678e-001 8.5036114036157107e-001
      5.3309786465545483e-001 -2.6335649099536679e-001
      3.2016878954619743e-001 -1.9592691946276173e+000
      -1.0008048661127898e-001 -1.0438813767574915e+000
      4.5567247376955555e-002 -1.1168552146970627e+000
      -1.0851783700705764e+000 -2.4109378038416680e+000
      5.4669917808122326e-001 8.1487430147535367e-001
      -2.2511413250240309e+000 -4.4424974946606310e-001
      -7.6787331671777787e-002 8.9934815713108174e-003
      -1.3228014719298926e+000 -6.1995071013355378e-002
      4.2660549253012470e-001 -1.4413783280575052e+000
      6.0698005358368590e-001 2.4416086184155977e-001
      3.4400740193962664e+000 -3.7158894434933737e-001
      4.3988264590633719e-001 5.7443156165185283e-001
      1.0678067092269160e-001 -3.5272095323531483e-001
      -3.1892270112234461e-001 -7.9288034999230972e-001
      -5.3403011904858000e-001 6.1532242227213119e-001
      3.8436370423691502e-001 -1.7867108682600601e+000
      -6.0012369809545191e-003 -8.7805814789939618e-001
      -8.5008338005656409e-002 5.4868555955680819e-002
      -5.2247719608501153e-001 1.1704495466986906e+000
      4.2069604318629983e-001 -5.2343068156234318e-001
      4.1643929549926001e-001 -1.1107043178230285e+000
      8.1324774130742306e-001 -2.3656293393604491e-001
      9.2765113182946946e-001 3.1010406818711556e-001
      -2.3225717979660931e-001 6.4771735651648166e-001
      1.3143081629878195e-001 7.2753105049216327e-001
      -7.2004641268591885e-001 -1.7030145664120150e-001
      -4.5253753619846798e-001 -5.7654078623121308e-001
      1.2409493666990348e+000 5.5643856891591281e-001
      -1.1145951782712551e+000 -2.2605648313815957e-001
      -2.4097832274579087e-001 2.1014380178056484e+000
      6.4745116412285741e-001 5.1300360521517696e-001
      2.5925367256710405e+000 4.6281317968731045e-001
      -4.3501153765027295e-001 -2.5460920864502157e-001
      1.0855004714762455e+000 4.7005076806589718e-001
      3.8664483398912131e-001 5.9675197693688320e-001
      6.9110458812073938e-001 -1.4243071008939009e-001
      -8.7413513585284297e-001 -1.4864475084231263e-001
      -4.1192569349651348e-001 -1.0552750415907095e-002
      -1.4809630657962702e+000 5.1333698958919483e-001
      2.0322588443478357e-001 -4.1786210489170050e-001
      -1.2337739138780462e-001 -1.6524122640048158e+000
      -4.5400865001144086e-001 2.9957118243041858e-001
      -3.3694428598054871e-001 8.7278085647380732e-001
      8.9349511579674856e-002 1.3192269225327842e+000
      3.6927492382485883e-001 7.6352174768550440e-001
      4.9849565301354615e-001 1.1245332354579078e-001
      -1.0871833955995586e-001 -7.7316339535285739e-001
      2.0358814521875903e+000 1.0391814423999772e+000
      -1.8886961754119505e-001 5.0510062937621225e-001
      -7.1824509324530117e-001 2.1874486910537738e-001
      -6.8080681971786050e-001 1.0407249368245699e+000
      1.1781341676250512e+000 4.6691408573670290e-001
      -3.0477078148395981e-001 3.1636150313278372e-001
      3.8186455355170090e-001 1.8781629034627575e-001
      8.4535457566599326e-001 1.0483994873218061e+000
      7.4073034470321231e-001 4.9687266875587144e-001
      -1.0108008809797259e-002 -1.2117899416757583e+000
      3.2852241220666517e-002 5.0236148077480380e-001
      -7.2609684410769448e-001 3.6986488092434611e-001
      -2.7338573636364601e-002 -1.1414300780063042e+000
      2.5689383869616289e-001 -4.0749310796349958e-001
      1.8787058938930432e-001 7.8174747042086989e-001
      -6.4915293527404316e-001 2.5935618325921161e-001
      1.3719215955349631e-001 6.3605977013457701e-002
      -5.4146534299578808e-001 4.6392857705340768e-001
      -2.2002782716272787e-001 -8.2718759239293949e-001
      4.4081515759558772e-002 7.9094315174687790e-001
      9.5507086209985237e-001 4.5784554221408841e-001
      4.7687793659740230e-001 4.3514620923217523e-001
      7.3866326002939506e-002 -3.4001176828893881e-001
      -1.0063865206028983e+000 9.5854273727860456e-002
      -1.6597750090013952e+000 1.3489599185090784e-001
      -7.8664789654000325e-002 -3.5181080780960113e-002
      -1.0940834228570859e-001 9.0503577290555789e-002
      -3.9841569345371863e-002 -8.2073676882959135e-002
      -3.4275930634663077e-001 1.6274132471018208e+000
      -3.7463426658572713e-001 -8.6194255295165070e-002
      9.7614153411591006e-002 3.5580387668967939e-001
      2.3414804083223260e+000 -9.3430640177300864e-002
      -2.8650967937858779e-001 1.7205201489549776e-001
      8.6682729901655736e-002 1.3567947768084768e-001
      -5.8183718370272952e-001 6.4618584084605815e-002
      2.7823373864734411e-003 1.8779114230705818e-001
      1.6409382689254826e-001 3.9592649495147270e-001
      -1.4686150199770742e-001 3.1705418228477029e+000
      -1.2196788247107228e-001 1.9914625787689305e-001
      2.3427113912851560e-001 -5.3869178560266601e-002
      2.0772642367708345e+000 -2.8142107790035686e-002
      -7.6988516617437192e-002 -1.0101020520471088e-001
      -1.4655198543541392e-001 -7.1963631095267278e-001
      -7.2633131027973530e-002 -1.0542396082161689e+000
      1.6314883857095272e-001 3.4852317537911437e-001
      -3.9622042310945904e-002 -8.4151576156827101e-001
      6.0636266263883092e-003 -7.9269242771770290e-002
      3.6053024849945781e-001 2.8457099023932131e-001
      -1.0995119330548327e-001 3.7773391289459313e-001
      -1.7035986793495903e-001 -1.0350508502728424e-002
      -2.3954038910710254e-001 1.8705784048042384e-001
      1.9434617133154108e-001 4.9210339529839353e-001
      1.1699503482650558e-002 1.1037298431649278e+000
      4.8359513043474228e-001 1.7541009944888419e-001
      -3.9679070164696811e-001 1.0730366956687208e-001
      -9.9553328028316612e-001 2.0519959009595609e-001
      -1.3608576963928276e-001 9.3586937820060401e-001
      -1.1286168525509797e+000 7.7277391801878526e-001
      -1.0251948451027738e-001 -3.9256223324974038e-001
      2.4607472239707265e-001 -4.5774958996626480e-001
      1.6281009501101951e+000 -4.5308029505981201e-001
      -3.6949624901372669e-001 -2.8801936166285258e-001
      1.6600641982079226e-001 -1.9335519774214988e-001
      -2.9117910182884493e-001 -1.0412243447489782e-001
      3.4004038046801294e-001 5.3700876481721678e-002
      -2.0821998297810343e-001 -4.9179173996946074e-001
      -2.7867351886693437e-001 5.4777693072585648e-002
      4.2724929942911077e-001 2.3356502498446299e-001
      -3.3758597587967626e-001 -4.8269673236037459e-002
      -5.6811052226810754e-001 -4.2820203978691873e-001
      2.2212957451408502e-001 3.3652799510690862e-001
      7.8648794990447113e-001 1.1748216628197352e+000
      2.7144499865861316e-001 1.8131788977597829e-001
      -4.1205373020118119e-001 1.7111788069947562e-001
      -2.9854583720151331e-002 1.1317593848561762e+000
      -1.3311712795215952e-001 -7.6399314050751010e-001
      7.5129278842739095e-002 -6.7317096660272369e-001
      -4.9482065009498649e-001 -5.6176135083868417e-001
      -5.5322134016482105e-001 2.0185250420771342e-001
      9.3521081527433769e-001 4.5071301199227465e-001
      -6.1548546358607614e-001 -4.5323869065320427e-001
      -4.7442083143872875e-002 1.3343580075279220e+000
      4.1136365403929126e-001 -2.6043983571216317e-001
      1.7654419951932405e-002 7.6571484849159532e-001
      9.3477225055714430e-001 -1.1722874192256121e+000
      3.2201115610057968e-001 -1.3750823416019764e-001
      2.0419065322523866e-001 4.6725540175854660e-002
      9.4905431688692740e-002 2.3902995598533944e-001
      7.3460422188178623e-002 2.3643988596761809e-001
      -8.0458206041465072e-002 3.2810901577106499e-001
      -2.8054658824710405e-001 -3.7312829476188170e-001
      3.1219647600808437e-002 5.1408467025133919e-001
      -1.7175735095019953e-001 -2.1862619186845222e-001
      -3.5832237243641346e-002 1.0573048820447788e+000
      -2.7850724416540329e-001 1.2901914195043263e+000
      5.1776071187911166e-001 -3.7822603446865849e-001
      -4.4702909606492330e-001 -8.0866610239889525e-001
      -6.9809867790425173e-001 4.3361760665177473e-001
      1.4064469509497987e-001 -4.8415084495985866e-001
      1.4393160448276732e+000 -1.8584054063373759e-001
      -2.3544465271060758e-001 -1.8245056053544403e-001
      -3.6461727375230141e-001 1.2694375996610457e-001
      6.2130621775879513e-001 -7.5979780716554035e-001
      3.9682220018084419e-001 2.2624799316450859e+000
      1.2893795089451396e+000 -4.5875651906094345e-001
      1.6665866896130527e-001 -1.6012434473865880e-002
      -1.0731853819662911e-001 -9.3148075578122110e-003
      2.4351135416744865e-001 1.3489336836358286e+000
      -1.3130444759317071e-002 1.1728286862978980e+000
      4.6582091111566754e-001 1.4866374319274658e+000
      -1.6040751050400040e-001 7.3209671560149259e-001
      -1.2073519547964850e+000 4.5315914775662636e-001
      2.7238567620944781e-001 -2.9472742479178893e-001
      9.1846584271442921e-001 1.6419570162104622e+000
      5.1320596560728717e-002 -5.4345719459233077e-001
      4.8913465294573522e-001 -8.1401425731545130e-001
      -2.5494848387397023e-001 6.3412762569566616e-001
      -6.2501237422412670e-001 3.7514530972266885e-001
      -6.9163545385019376e-001 2.5761461484528769e-001
      -3.0978684875768320e-001 -4.2962508280662398e-001
      -1.3051928646558353e+000 -1.0516830683597780e+000
      -1.5092073150563767e-001 -1.0416715551743736e+000
      1.0699454381869575e+000 6.7435742422451983e-001
      1.1422186382183412e+000 1.7301298419493121e+000
      1.4608612937538126e+000 8.6969186584277580e-001
      8.0405072481746298e-001 9.1226838022489731e-001
      8.9727669981961411e-001 2.0219858655756333e+000
      -9.9073642113338067e-001 9.1644914218788431e-001
      2.0075852038786324e-001 1.9184136833202854e+000
      3.3195050479308041e-001 3.6051257974247497e-001
      -3.5201188793044341e-001 1.3670831261089658e+000
      -5.8686404528034020e-001 9.5394852221024695e-001
      -1.6559810820538237e-001 8.5728652153614068e-002
      -5.6214539581374789e-001 7.8659983651458587e-001
      6.0329819706347665e-001 -7.3629813808870304e-001
      -8.2716393902697649e-001 -2.8381768311136513e-001
      -1.6392254156003352e-001 -3.2583091371819894e-001
      -5.8906113805125981e-001 1.4039849274397331e-001
      4.6535181548586751e-001 9.6599076449042232e-001
      -1.4916166821362531e+000 1.3813218719895413e+000
      -1.1412381422998994e+000 -3.2275344484547727e-003
      -2.1085602206699347e-001 7.6811135587799495e-001
      1.1125642419429664e+000 2.1917210623657426e+000
      8.3759979313521615e-001 -1.3425382889914885e+000
      -7.1629949245218838e-001 2.2436503980508498e+000
      8.8106067730305729e-002 1.2910582480052396e-001
      1.3815102190550208e+000 8.5382766002878596e-001
      -2.3359328606787313e-001 -8.3297755550484420e-001
      -1.1290461469735784e+000 -3.0960434366728322e-003
      1.0492928399289339e+000 3.8045521865709347e-001
      1.8488683833316449e-001 1.1604155531059916e+000
      2.2229503941968159e-001 3.2219164583403909e-001
      1.5627841926594031e-002 -5.6951466895677283e-001
      2.9727741221002479e-001 -5.4552802505034292e-001
      5.9780698851549452e-001 -1.1606142559822137e+000
      -1.1086171996349610e+000 -4.2956726055485622e-001
      2.9796330536633620e-001 -3.3700440942957099e-001
      3.9039807423238437e-001 7.9642617350778933e-001
      1.0753588816625068e+000 4.2110535625873735e-001
      -9.1493519058453587e-001 1.5528098650863353e+000
      -1.8434558648275421e+000 8.0129728152882984e-001
      1.1593142620427985e+000 7.6351858913262571e-002
      4.0090369911455465e-001 5.8836507329877907e-001
      2.6577255869960528e+000 -1.5880941450607544e+000
      -2.9114058690252387e-001 1.9600478637456196e+000
      -1.4280560896148948e+000 1.6370169737854159e-001
      1.0557771766049238e+000 1.0552893692060130e+000
      -2.1261030880737353e-001 2.5959047837363153e-001
      -9.0337458183524111e-001 -1.7855583393775467e+000
      -3.6665348594927710e-001 -1.9905330432280702e-001
      -1.7988566706042704e-002 -6.5538360433627119e-001
      -4.1685244714258252e-001 -7.3332457830670550e-001
      -1.5590475123710740e-001 1.6512250073156981e-001
      -2.0338472956110927e+000 -6.5026338286991203e-001
      -8.8493872007160801e-001 2.0689966485712827e-001
      -3.2385976866746824e-001 -2.4813999839665588e-001
      -5.0804473006072992e-001 1.1617143842674180e+000
      1.6851199834758926e-001 4.8179668568627593e-001
